country,dim_0,dim_1,dim_2,dim_3,dim_4,dim_5,dim_6,dim_7,dim_8,dim_9,dim_10,dim_11,dim_12,dim_13,dim_14,dim_15,dim_16,dim_17,dim_18,dim_19,dim_20,dim_21,dim_22,dim_23,dim_24,dim_25,dim_26,dim_27,dim_28,dim_29,dim_30,dim_31,dim_32,dim_33,dim_34,dim_35,dim_36,dim_37,dim_38,dim_39,dim_40,dim_41,dim_42,dim_43,dim_44,dim_45,dim_46,dim_47,dim_48,dim_49
India,-0.20356,-0.8707,-0.19172,0.73862,0.18494,0.14926,0.48079,-0.21633,0.72753,-0.36912,0.13397,-0.1143,-0.18075,-0.64683,-0.18484,0.83575,0.48179,0.76026,-0.50381,0.80743,1.2195,0.3459,0.22185,0.31335,1.2066,-1.8441,0.14064,-0.99715,-1.1402,0.32342,3.2128,0.42708,0.19504,0.80113,0.38555,-0.12568,-0.26533,0.055264,-1.1557,0.16836,-0.82228,0.20394,0.089235,-0.60125,-0.032878,1.3735,-0.51661,0.29611,0.23951,-1.3801
China,-0.22427,0.27427,0.054742,1.4692,0.061821,-0.51894,0.45027,-0.32164,0.57876,-0.049142,0.52523,-0.18784,0.52539,-0.058431,0.19741,0.30754,-0.45412,0.38268,0.33441,0.42801,0.98406,-0.7637,-0.066755,-1.0027,1.1942,-2.3916,0.24326,-0.40705,-0.63413,-0.20832,3.8851,0.75046,0.14857,0.24485,-1.0143,-0.76356,-0.63824,0.73037,-1.2025,0.18932,-1.2139,-0.55377,1.3033,-0.82461,0.9965,0.15117,-0.65753,0.28569,0.45374,-0.85646
USA,-1.256,0.67149,0.1418,1.5068,-0.54231,-0.014556,-1.0648,-0.60224,0.55127,-0.67244,0.39114,-0.55533,-0.54794,-0.37832,0.35629,0.15954,0.030876,0.31742,-0.87051,0.21663,-0.30207,0.12983,0.19678,0.79039,-0.56554,-0.82879,-0.19614,-0.82778,-0.6898,-1.0809,1.8179,-0.26586,0.065575,-0.1093,-0.66603,-1.1031,0.12164,-0.29828,-0.0003941,-0.72735,0.905,-0.74758,0.76054,-0.4513,0.10696,0.8653,-0.43969,-0.47675,-0.91554,0.9724
Indonesia,0.50731,-0.87783,0.24249,1.3903,0.022146,-0.81473,0.75249,-0.15269,0.59991,0.50067,0.71337,-0.52647,0.21689,-0.037839,0.68195,0.64152,0.066501,0.36262,0.1056,0.85045,0.063619,0.29074,0.0071922,-0.08543,0.46046,-1.177,0.59601,-0.43192,-1.087,0.20318,2.6747,0.3077,0.14464,0.37428,-0.08624,-0.19423,-0.25764,-0.96367,-0.57695,-0.3511,-1.3974,0.32864,0.903,-1.1811,0.23645,1.0362,-0.58633,0.30987,0.32511,-1.2101
Pakistan,0.093731,-0.76398,0.33058,0.56553,0.34119,-0.43292,0.47741,0.2661,1.1704,-0.54634,-0.16965,-0.50994,-0.86457,-0.67518,-0.38377,1.1203,0.62431,0.065409,-0.12632,1.3,0.24576,1.0203,0.9235,0.41756,0.29078,-2.083,0.4507,-0.44789,-0.3796,0.48155,2.8687,0.56244,-0.087388,0.57662,0.97655,0.45718,-0.16975,-0.43693,-1.5763,0.19571,-0.52565,0.66193,-0.13605,-0.52883,0.37579,1.0104,-0.7011,1.2532,-0.10438,-1.348
Nigeria,-0.1002,-0.71776,-0.065878,1.1664,0.088241,-0.70581,0.14715,0.41536,1.3404,0.43015,0.85976,-0.31783,0.099693,-0.72363,0.6767,0.29136,0.41531,0.19075,-0.21264,0.49955,-0.12571,0.1804,0.39592,0.1831,-0.24054,-1.1642,0.72876,-0.54726,-0.6379,0.67629,1.9417,0.64861,-0.49602,0.37441,0.18206,0.063983,-0.70922,-0.46241,-0.09928,0.14539,-0.64004,0.92863,0.14358,-0.93657,-0.32357,1.4889,-0.85265,0.76541,-0.19807,-1.5821
Brazil,0.014697,-0.4585,-0.049365,1.1068,-0.34228,-0.99984,-0.59754,-0.021446,0.070466,1.0038,1.3814,-0.15615,-0.04429,-0.64585,1.2024,-0.35262,0.094759,-0.26553,-0.16363,-0.29023,-0.90477,-0.64781,-0.23873,0.42291,0.019089,-1.194,0.68176,-0.019443,-0.42695,0.073599,2.5519,0.61103,-0.57614,0.053781,-0.22584,-0.67029,-0.91667,0.71881,0.012405,-0.55416,-0.52862,0.33267,1.2562,-1.3472,-0.43544,1.2502,-0.12576,-0.060888,0.79752,-1.1951
Bangladesh,-0.78462,-0.88502,-0.15896,0.63827,-0.24711,-0.75367,0.50816,0.24133,1.554,-0.26346,0.25973,-0.38475,0.26602,-0.38599,-0.066866,0.14641,0.23601,0.468,0.077611,1.153,0.15401,0.55081,0.77775,0.31938,0.34146,-0.72249,0.52206,-0.66022,-0.95038,0.83269,2.6301,0.76556,0.18253,1.1606,0.22053,0.83714,0.24177,-0.48216,-0.40501,0.076339,-0.8855,0.3561,0.025617,-0.67388,0.091004,1.1873,-1.1243,0.37364,0.94965,-1.6012
Russia,0.32097,1.0144,0.50412,0.42314,-0.017368,0.42165,0.78563,1.2075,-0.82915,-0.12545,0.72666,-0.68589,-0.16918,0.89959,0.43864,0.24371,0.049558,-0.23954,0.35105,0.69405,0.47494,-0.80122,-0.11579,-0.33322,0.35565,-2.5386,0.37923,0.052781,0.54565,0.13112,2.7354,0.45458,-0.12994,-0.10698,-1.2169,-0.57424,-0.7642,1.2824,-0.95928,0.0053543,0.20225,-0.31514,2.1783,-1.7204,0.11169,0.62552,-0.87655,0.93488,-0.75778,-0.49446
Ethiopia,0.70239,-0.24528,-0.059709,0.46773,-0.44004,0.038748,0.30878,-0.043989,1.1242,-0.77292,0.60161,-0.77001,-0.16113,-1.6514,0.59773,0.40098,0.37838,0.090369,0.54672,1.1767,-0.8561,0.52485,0.73324,0.22767,0.72468,-0.90375,0.47506,-0.4134,-0.71348,0.78031,1.6549,0.5121,-1.2976,1.2029,-0.28644,0.013201,-0.87789,0.25123,-1.0525,0.48722,0.0051964,0.39018,0.42821,-1.0567,-0.29918,0.25656,-0.34637,0.71131,-0.53657,-1.9569
Mexico,0.41189,-0.093082,-0.18871,1.0692,-0.53433,-0.99734,-0.55511,0.32821,0.13527,0.56191,0.4153,-0.76649,0.64603,-0.18546,0.78123,-0.89799,-0.49891,-0.2208,-0.13527,0.18387,-0.71566,-0.76888,-0.080441,0.00049022,-0.52532,-1.8385,0.17512,0.33196,0.24221,-0.56305,2.6126,-0.0023889,-0.5464,-0.73415,-0.46359,-0.75214,-1.2924,0.2636,0.28462,0.026416,-1.0242,0.57252,1.4757,-1.2457,-0.62902,0.40549,-0.41026,-0.60271,0.13786,-0.079502
Japan,-0.31739,-0.14033,0.32292,1.072,0.33008,0.39406,-0.016682,0.076903,-0.74591,-0.31521,1.0033,-0.12659,0.063252,0.64006,0.70721,0.84303,-0.68832,0.47214,-0.66002,0.73962,1.1116,-0.89428,-0.90364,-0.47281,0.88529,-2.0194,0.30623,-0.31662,-0.44423,-0.52139,3.0287,0.70315,0.92315,0.52263,-0.62674,-0.58995,-0.15876,-0.078332,-1.0794,-0.71552,-1.2764,-0.85554,1.2827,-1.2134,1.0125,0.40329,-0.16276,0.99117,0.031016,-0.35431
Egypt,0.75689,0.81669,-0.25743,-0.036118,-0.010797,-0.6895,0.10243,0.41161,0.33417,0.2597,0.23271,-0.32065,-0.4423,-0.24886,0.2994,0.85705,0.61531,-0.90883,0.097914,1.8604,0.37089,0.3509,0.62258,0.0058125,0.092549,-1.6326,0.30094,-0.3016,-0.16522,0.51995,2.3563,0.21679,-0.84397,0.79183,0.093384,-0.061096,-0.14283,0.44168,-1.2029,1.0734,-0.15193,0.11218,0.58621,-0.68003,0.32269,0.48905,-0.92192,0.52071,-0.24261,-1.8315
Philippines,0.67166,-0.50978,-0.042586,1.1606,0.29798,-1.039,0.14091,-0.0038353,0.37521,0.1462,0.79247,-0.26469,0.72262,-0.22795,0.17277,-0.33822,-0.89928,0.31675,-0.19891,1.0077,-0.16834,-0.071295,0.088306,-0.20896,-0.27093,-1.1131,0.56127,-0.63922,-0.61902,-0.069162,2.3592,0.26383,-0.33826,-0.06612,-0.061878,-0.2542,-0.76878,-1.1012,-0.42139,-0.085953,-1.4476,0.19352,0.69993,-1.5084,-0.045248,0.24279,-0.45955,-0.2349,0.17556,-0.52728
DR Congo,0.874245,-0.18080999,-0.1595315,0.39198,-0.24287999,-0.108947,0.06787645,-0.25149,0.313992,-0.764165,0.297355,0.09970501,-0.41793,-1.19234,0.32898998,0.14774501,0.469665,0.205872,0.256495,0.60254,-0.67904997,0.65059,0.88751,0.2036765,-0.227795,-0.49996,0.3534,-0.51142454,-0.6415385,1.06535,1.58225,-0.2959545,-1.2449,0.220045,0.110845,0.226585,-0.61635,-0.4416055,0.4289255,0.0995975,0.152429,0.73441,-0.087805,-1.26168,0.23475501,0.60808,-0.40468,-0.2341675,-0.036695004,-0.490425
Vietnam,0.015116,-0.10943,-0.27907,0.21508,-0.29031,-0.53296,0.19078,-0.41052,0.44114,-0.62994,0.18833,-0.21939,0.41152,-0.50776,0.43244,-0.53374,-0.64635,0.71545,0.32507,1.2133,-0.28625,-0.70367,0.3289,-0.75187,0.36866,-1.91,-0.045114,-0.29222,-0.13062,-0.085536,2.4892,0.38918,-0.20016,0.6271,-0.70908,0.065848,-0.6934,0.42858,-0.96318,0.21551,-1.26,0.10016,0.88836,-1.2289,0.66346,-0.34112,-0.59078,0.12597,-0.30163,0.0054462
Iran,-0.18997,0.11493,0.85566,-0.039811,0.10742,-0.44042,1.2496,0.49928,0.58689,0.8321,0.027948,-0.85445,-0.39854,-0.18763,-0.050099,0.95036,0.59861,0.25454,0.6548,0.87505,0.82139,-0.0041283,0.9193,-0.033385,0.1914,-3.0393,0.58703,0.23673,0.031058,0.17775,2.4503,-0.35655,-0.68777,-0.43984,0.12271,-0.46345,-0.29642,0.33648,-1.6442,0.23183,-0.019779,0.0057172,0.94701,-1.2708,0.53767,0.80297,-0.70422,1.7059,-0.64729,-0.97299
Turkey,0.38135,-0.20444,-0.57329,0.039556,0.56655,0.59311,0.40481,0.35574,0.14022,-0.56136,0.4968,-0.87828,0.56048,0.13002,0.53682,0.99199,0.71035,0.10209,-0.19113,1.3147,0.25936,-0.46464,0.40656,0.57927,0.30932,-2.2949,0.69226,0.39545,0.13891,-0.11567,2.5195,0.99871,-0.89958,0.98059,-0.66361,0.12376,-0.3936,0.49665,-0.99641,0.3154,-0.080299,0.51342,0.46186,-1.0601,0.31185,1.031,-0.5048,1.5887,-0.21222,-1.1793
Germany,0.31098,0.05573,0.27293,-0.79354,0.15301,0.68547,-0.042667,0.23203,-0.90976,-0.71177,1.1649,-1.1234,-1.2657,-0.3255,0.96688,0.25919,0.57671,-0.55244,-0.73962,0.57585,0.67452,-1.1339,-0.74452,0.7491,-0.20376,-2.0823,0.081193,-0.29871,-0.64778,0.17616,2.4315,0.79447,0.40519,-0.011954,-1.1833,-0.91463,-0.013852,1.4251,-0.32726,-0.2092,0.76412,-0.55271,1.5657,-1.4095,0.51719,0.40492,-0.07026,0.2994,-0.34246,-0.28954
Thailand,0.17765,-0.79639,-0.049988,1.4182,0.034575,-0.84028,0.55555,-0.080121,0.52679,0.0023122,0.53119,-0.56702,0.43976,-0.3047,0.8868,0.89656,-0.43682,0.1023,0.2095,0.98867,0.30654,0.0054663,-0.043085,0.040747,0.21038,-1.1335,0.72388,-0.46893,-0.80514,0.44199,2.7999,0.73158,0.16846,0.81892,0.13799,0.29929,-0.30541,-0.037902,-0.86127,-0.65529,-1.0705,0.48492,0.80139,-0.86803,0.60769,0.37644,-0.56813,-0.10958,0.6117,-1.1001
United Kingdom,-0.10415,0.0248655,-0.4053365,0.15187001,0.181865,0.107356995,-0.4107525,0.193405,0.427915,-0.57493997,0.77132,0.214292,0.012355,-0.63734996,0.0823545,0.58248997,0.229158,-0.38303,-0.442525,0.80551004,0.45491502,-0.365705,0.18097001,0.330594,-0.257478,-1.7839,-0.17572498,-0.831355,-0.2098,0.308599,2.8924,0.113406,-0.1623755,-0.196285,-0.0882515,-0.331545,-0.132426,-0.045675002,-1.13593,-0.15602499,0.0779545,-0.06948999,0.488541,-0.67785,-0.59443897,1.009885,-0.92563,-0.453265,-0.65472,-0.739035
Tanzania,1.1182,0.016051,-0.19921,0.90456,-0.47076,-0.58144,-0.015863,-0.61592,1.3243,-0.40795,0.58959,-0.2252,0.14554,-1.5566,0.54419,0.47064,0.44898,0.42312,0.6632,0.64002,-0.046802,0.36805,0.64391,0.56987,0.099011,-0.32102,0.82862,-0.37932,-1.1374,0.32164,1.5062,0.89065,-0.78006,0.23415,0.79664,-0.076592,-0.71959,-0.3236,-0.20749,0.54249,-1.1079,0.56127,0.60689,-1.5994,-0.41817,0.66259,-0.60991,0.1401,0.69437,-1.6208
France,0.66571,0.29845,-1.0467,-0.66932,-0.78082,-0.00013007,-0.17931,0.3711,-0.18622,-0.40535,0.98644,-0.60545,-0.94571,-0.69207,0.56681,-0.3861,0.027634,-1.2464,-0.73561,-0.52222,-0.061766,0.16771,-0.37462,0.4225,-0.63095,-1.636,-0.25094,0.04495,-0.39758,0.98099,2.6293,0.8348,-0.77338,0.39402,-0.57976,-1.029,-0.26709,0.98714,-0.51029,-0.42477,1.3956,-0.029347,2.2295,-1.7079,0.025562,0.6906,-0.579,-0.17824,0.42916,-0.5394
RSA,-1.1268,-0.66064,0.32699,1.3185,-1.0427,-0.65596,-0.23043,-1.3776,0.41477,-1.1637,-0.26553,0.40237,-0.16054,-0.85187,-0.87577,0.10238,1.3912,-0.33276,-0.97867,0.049598,-1.1594,-0.19953,0.51073,0.60246,0.075618,0.37105,0.55929,-0.83559,-0.80539,-1.1235,0.56882,-0.9549,-0.49346,0.46651,0.51964,0.1845,-0.30801,-0.63898,0.70973,-0.094834,1.6062,0.50121,0.78761,-0.071345,0.7612,1.09,0.96047,0.44578,0.83273,0.069656
Italy,1.7704,-0.77758,-0.95302,0.329,0.040391,-0.086352,-0.096326,-0.14525,-0.85415,-0.091315,0.71825,-0.8378,-0.71724,-0.30078,1.2588,-0.72728,-0.26415,-0.17469,-0.57705,0.335,-0.51533,-0.43223,-0.80174,0.94644,0.0098356,-1.3264,0.59604,-0.12843,-1.0187,0.25605,2.6086,0.87975,-0.30444,0.31701,-0.66136,-0.15968,-0.28717,1.4486,-0.6017,-0.64794,0.37924,0.18643,1.2729,-1.2207,-0.20923,1.1948,-0.18,-0.35325,0.44488,-0.83675
Kenya,0.40044,0.04194,-0.047201,1.0901,-0.31929,-0.25377,-0.45639,-0.34451,1.5372,-0.75715,0.090759,-0.36166,-0.43692,-1.3226,0.72349,0.35523,0.87972,-0.051496,-0.13752,0.35615,-0.3303,0.64007,0.27121,0.43061,0.47067,-0.76419,0.99237,-0.72196,-1.0157,0.85898,1.5645,0.71899,-0.82299,0.25378,0.34654,-0.15065,-0.47152,-0.47869,-0.44868,0.15745,-0.72703,0.46383,0.42822,-0.66268,0.13954,1.0865,-0.73613,0.087425,0.59006,-1.5859
Myanmar,-0.51766,-0.0046984,-0.065691,1.0421,-0.36377,-1.7862,0.77068,-0.037647,0.9958,0.46442,0.27281,-0.37622,0.52184,-0.29211,0.37214,0.24571,0.20025,0.3006,1.207,0.86835,-0.037262,0.39958,0.83728,-0.45713,0.25307,-1.0377,0.9413,-0.35529,-0.65077,0.35453,2.4972,-0.24615,-0.71045,0.60779,-0.20055,0.18424,-0.22978,-0.45283,-0.88432,0.16557,-1.204,0.35716,0.43765,-0.90536,0.62381,-0.23385,-0.73283,0.31961,-0.34336,-1.277
Colombia,0.76711,-0.53432,0.057884,1.1279,-0.021452,-0.64132,-0.15539,0.33413,0.23962,0.54064,0.76528,-0.90681,0.11757,-0.28853,0.6315,-1.3044,-0.2284,-0.1495,0.29548,0.30309,-1.1462,-0.1612,0.33058,0.16257,-0.95557,-1.2683,0.60833,-0.06357,0.39087,0.091681,2.0273,-0.17743,-1.4316,-0.22887,-0.35496,-0.23553,-1.8291,-0.013455,-0.084608,-0.15725,-0.34641,0.81083,1.4533,-1.8185,-0.34397,0.28276,-0.26321,0.28994,-0.19014,-0.82892
South Korea,-0.170172,0.400265,0.08528,0.566375,-0.59311,-0.45414,-0.10031499,0.32951,0.312855,-0.472438,-0.055785,-0.52458,-0.0781725,-0.525805,-0.402876,0.6272,0.54877,0.24261999,-0.551413,0.906205,0.204745,0.08382501,0.2651235,-0.18005002,0.372155,-2.2065,0.836155,0.102570996,-0.51178503,-0.28366,3.3513498,-0.147322,0.103349,0.4626,0.19394499,-0.75945497,-0.1613015,-0.035339996,-1.19654,-0.507885,-0.53953,-0.4594585,1.04977,-1.11655,0.85161996,0.4162265,-0.31958002,0.35630497,-0.40673,-0.61475
Sudan,0.73035,-0.24628,-0.25172,0.45256,-0.14062,-0.22315,0.29425,0.083567,1.1997,-0.28948,0.46523,-0.29701,-0.55134,-1.2716,0.20386,0.30393,0.33801,-0.043013,0.98767,0.95797,-0.7981,0.78208,0.99817,0.20159,-0.44833,-1.3123,0.86005,-0.09803,-0.033466,0.50573,2.1297,0.12594,-1.525,0.58162,0.14797,-0.31618,-0.96033,-0.74894,-0.77345,0.55936,-0.19406,0.49795,0.38119,-1.4648,-0.02437,0.26846,-0.68173,0.85156,-0.77264,-1.1295
Uganda,0.74002,-0.80062,0.029836,0.47432,-0.30247,-0.49626,0.098724,-0.57323,1.2073,-0.7701,0.51197,-0.49124,0.064772,-2.0066,0.34522,0.43387,0.28362,0.65552,0.39979,0.8603,-0.44526,0.35542,0.48663,0.25119,0.024253,-0.71428,0.80966,-0.74497,-0.9923,0.54378,1.8966,0.64278,-0.98933,0.32101,0.16666,0.35032,-0.76427,-0.49631,-0.4889,-0.020041,-0.38239,0.67238,0.2109,-1.4092,-0.051206,0.57644,-0.42669,0.215,-0.13945,-1.2784
Spain,1.1595,0.21344,-0.36298,1.0122,-0.18473,-0.30199,-0.35055,0.8532,-0.71617,0.35008,1.1401,-0.58245,-0.33837,-0.36144,1.1036,-0.85338,-0.37948,-1.2075,-0.44249,0.10017,-1.0162,-0.76619,-0.6012,0.76406,-0.20989,-1.0587,0.4871,-0.63722,-0.35631,0.30415,2.6428,0.52948,-0.64095,0.11115,-0.44187,-0.54406,-0.67595,0.69745,-0.37146,-0.19252,0.54152,0.29873,1.4091,-1.291,-0.57823,0.52369,-0.44592,-0.61992,0.56161,-0.94449
Algeria,0.73365,-0.26457,-0.2012,0.14174,0.049879,-0.39153,0.43655,0.10812,0.24289,0.40985,0.97583,-1.3112,-0.4496,-0.3605,0.61006,-0.0053429,0.30541,0.068056,-0.26152,1.4775,-0.70825,0.36173,1.0515,0.88608,-0.43232,-0.85569,0.36375,0.013644,-0.20592,0.94168,1.4441,0.90921,-1.2364,0.45299,-0.032111,-0.00091242,-0.94561,0.028941,-0.84973,0.64047,0.0020614,0.34746,0.63507,-1.4988,-0.2418,0.75993,-0.56772,0.75503,-0.0099099,-1.7159
Iraq,0.8643,-0.18699,0.99589,-0.65489,0.64392,-0.44191,0.36037,0.31072,0.70071,-0.90208,-0.66442,-0.77709,-0.88973,-0.081438,0.2968,0.74191,0.39566,-0.59606,0.3467,0.76214,0.053087,0.43839,0.77542,-0.48396,-0.3259,-2.3488,-0.40539,0.059394,1.0076,1.112,2.9111,0.14878,-0.92753,-0.42307,-0.07785,0.16759,-0.41354,-0.23573,-1.4501,0.21852,-0.30933,0.27827,0.71862,-1.1314,0.2044,0.57201,-0.86646,1.4808,-1.157,-0.1834
Argentina,0.30309,-0.24835,-0.62801,1.068,-0.68397,-0.84683,-0.24429,0.69909,-1.1685,1.0031,1.0191,0.10211,-0.079516,-0.13184,1.1001,-0.91619,0.016927,-0.8497,-0.2852,0.28059,-1.1384,-0.78769,-0.43732,-0.061458,-0.39915,-0.76221,1.0491,-0.13895,-0.38365,-0.27953,2.5542,0.17744,0.011827,0.29512,-0.5911,-0.4105,-0.78927,0.40803,0.30279,-1.2068,-0.37791,-0.034194,1.8297,-1.5049,-0.38398,0.6953,-0.2524,-0.34135,0.60223,-0.84916
Afghanistan,1.2447,-0.6012,0.91558,-0.32839,0.55133,-0.90798,0.19726,-0.011695,0.9853,-1.1864,-0.29323,-1.1293,-0.53785,-0.52639,0.1525,0.45072,0.31377,-0.077195,0.2962,1.2003,-0.40543,0.50093,0.78234,-0.02051,-0.10183,-1.8625,-0.21898,-0.28833,0.4406,0.98703,2.6899,0.29544,-0.74035,-0.2833,0.25638,0.71681,-0.91745,-0.0050923,-1.517,0.28548,-0.75356,0.85136,0.7117,-1.4273,0.26013,0.13448,-0.46442,0.69723,-0.95135,-0.31487
Yemen,1.1794,-0.20645,0.10839,0.0030173,0.35888,-0.33421,-0.23423,0.42756,1.312,-0.3213,0.20364,-0.31169,0.25053,-0.077999,-0.45891,0.20563,-0.13927,-0.11492,-0.09897,1.8002,-0.32559,0.093687,1.1655,0.80174,-0.45581,-1.8554,0.65124,0.013399,0.21512,0.63971,1.2452,0.08435,-0.66948,0.29098,0.49202,-0.36807,-1.0759,-0.49899,-1.0413,0.67945,-0.17331,0.16508,0.69511,-0.80369,0.12499,0.43949,-0.77445,0.73268,-0.0017369,-1.1997
Canada,-0.72491,0.40524,-0.35895,0.65977,-0.27592,0.60496,-1.217,0.14638,0.85096,-0.74799,1.0267,-0.0491,0.40083,-0.11647,0.14594,0.32253,0.38807,-0.72773,-1.0039,-0.015682,0.66613,-0.30068,-0.01085,0.57758,-0.26283,-1.3647,0.17607,-0.54651,-0.40292,-0.14113,2.3757,0.60026,0.072329,-0.4139,-0.30918,-1.166,-0.15287,-0.18237,-0.075067,-0.30076,-0.073329,-0.19173,1.1995,-1.1107,-0.57754,1.011,-0.81894,-0.11035,0.015073,-0.03693
Poland,-0.37702,0.47362,0.31344,-0.23711,0.70257,0.63318,0.59792,0.65035,-0.66145,-1.2128,1.2191,-1.2979,0.28255,-0.42147,0.77957,0.84576,0.32248,-0.077685,-0.20554,1.1082,0.36429,-1.4393,-0.99148,0.45876,0.13942,-1.8145,0.19684,-0.43794,0.35225,0.11821,1.7225,0.8554,0.064044,-0.38668,-1.3531,0.01901,-0.20663,0.93854,-0.73513,0.33702,0.57519,0.30103,0.8791,-1.5753,-0.7214,1.2538,-0.6145,0.19247,-0.83043,-0.68375
Morocco,0.59473,0.36488,-0.77817,0.93933,-0.037318,-0.64638,0.16543,0.55007,0.48588,0.45553,0.90932,-1.0459,0.033392,-0.6082,0.63413,0.52727,0.41577,-0.95741,-0.046756,1.7472,-0.46554,0.29218,0.77029,0.85207,-0.19853,-0.88732,0.61826,-0.064217,0.066865,0.18422,1.5626,0.27913,-0.91489,0.72386,0.25402,-0.22033,-0.43213,0.9194,-1.4377,0.61241,0.40037,0.27386,1.1377,-1.2657,0.020006,0.076781,-0.56769,-0.045459,0.020519,-1.4825
Angola,0.62629,-0.61208,-0.48426,1.02,-0.32956,-1.0617,0.08124,0.28053,0.80578,-0.10144,1.0741,-0.61982,-0.16859,-1.2333,0.61408,-0.63446,0.037386,0.37904,0.68677,0.28486,-1.2904,0.29576,0.81813,0.11133,-0.2083,-0.09496,0.83434,-0.12206,-0.22692,0.61636,2.0753,0.37729,-1.3022,0.46362,-0.1918,0.14043,-1.0574,0.14502,-0.19846,-0.030458,-0.25229,0.059644,0.64176,-1.7524,-0.62911,1.1011,-0.26089,0.58333,-0.50707,-1.4228
Ukraine,0.010116,0.928,0.5651,0.47088,-0.12828,0.62916,0.79648,1.5639,-0.45899,0.0058128,1.0009,-0.8081,0.50041,0.60974,0.43451,-0.13704,0.11206,0.18364,0.40581,0.66037,0.45986,-1.0758,0.17123,-0.15856,0.15824,-1.5566,0.73764,0.1829,0.40501,0.44695,2.0744,0.74401,-0.46557,-0.21248,-1.4617,0.010621,-0.45303,1.1061,0.35433,0.037317,0.34839,-0.43922,1.4033,-1.7432,-0.70741,1.1817,-1.1879,0.92637,-0.027758,-1.0023
Uzbekistan,-0.28626,0.50746,0.59975,1.2841,-0.0067222,-0.82225,1.0127,0.18888,0.17532,0.44784,1.0612,-1.1818,-0.07218,-0.099865,0.17602,0.73371,-0.011952,-0.3683,0.35115,1.8421,-0.74007,-0.42983,0.70834,0.0019885,-0.5599,-1.2182,1.2483,-0.11756,0.040782,-0.36312,1.186,0.97334,-0.21021,-0.35874,-0.83752,0.27478,-0.5868,0.756,-1.3282,0.74377,0.030508,0.44096,0.91429,-1.0793,0.066311,0.39243,-0.65298,0.094275,-0.97933,-1.4303
Malaysia,-0.2733,-0.54583,-0.32637,1.8247,0.29108,-1.0569,0.44993,-0.60195,0.87542,0.017496,0.96876,-0.022208,-0.071889,-0.60675,0.25868,1.3338,0.18284,0.33957,0.14609,1.074,0.51863,0.12927,0.37627,0.26633,0.083352,-1.0532,1.0728,-0.43277,-1.0341,0.3701,2.7104,0.76851,0.21712,0.85278,0.14638,-0.35619,-0.19071,-0.091202,-0.91903,0.0073924,-0.90297,-0.12835,0.41989,-0.21922,0.39808,0.40928,-0.79796,0.12977,0.90538,-1.1855
Mozambique,0.97156,-0.43689,-0.31424,1.1965,-0.95528,-0.42767,0.27422,0.14908,0.87115,-0.24721,0.73211,-0.38306,0.47334,-1.3691,0.47178,-0.47534,-0.090697,0.57713,1.0303,0.39088,-0.77848,0.25797,0.28997,0.2204,0.57497,-0.041663,1.0118,-0.28269,-0.92122,0.76264,2.0791,0.54422,-0.80529,0.76238,-0.38314,0.32364,-0.82755,0.10449,-0.014288,-0.12395,-0.33624,0.50773,0.20757,-1.5349,-0.4966,0.63101,-0.56625,-0.27355,0.37204,-1.5991
Ghana,-0.27753,-0.14198,-0.62865,0.76395,0.012668,-0.52587,-0.21165,0.1987,0.61147,-0.31053,0.91843,-0.00989,0.12913,-1.1754,0.31035,0.4484,0.53633,0.013437,-0.12895,0.37086,-0.42613,0.50814,0.61024,0.229,0.071434,-0.39214,0.73007,-0.19735,-1.046,0.21746,1.1906,1.2736,-0.71157,0.055947,0.5405,0.51374,-0.78814,0.31729,0.016883,-0.54992,0.090006,0.84053,0.12881,-1.6951,-0.73386,1.7114,-0.091706,0.48332,0.01109,-1.7086
Peru,0.56325,-0.10534,-0.21799,1.335,-0.35513,-0.98961,-0.02227,0.44863,-0.32069,0.72776,0.77992,-0.43826,0.70535,-0.20057,0.44197,-0.6322,-0.58263,0.019518,0.25073,0.66106,-0.93496,-0.023471,0.074304,-0.11181,-0.20324,-1.1545,0.39452,0.09372,-0.27182,-0.18068,1.8429,-0.37776,-1.1332,-0.17605,0.076909,-0.25296,-1.2729,-0.15811,0.16515,-0.32012,-0.76888,0.37513,1.3977,-1.3739,-0.57559,0.60141,-0.10711,0.10838,0.44186,-1.4398
Saudi Arabia,0.777115,0.453175,-0.0570155,0.15087,0.99167,-0.70724,0.050799996,0.315155,0.66942,0.62137,0.3072,-0.19336,-0.016848,0.245299,0.1673955,0.683995,-0.03609,-0.432505,-0.232615,1.61515,0.40531,-0.045949996,0.65525496,0.1139115,-0.86368,-2.25335,0.43837,-0.12437551,-0.0320085,0.528205,1.9782,0.65791,-0.0252745,0.792625,0.47662503,-0.322515,-0.50071,0.42799002,-1.35865,0.71085,0.009865001,0.465125,0.65185,-0.39427,0.686585,0.6361,-1.3736,1.055345,-0.730915,-0.825155
Madagascar,1.326,-0.51007,-0.69609,1.0304,-0.31879,-0.27561,0.53479,0.12041,0.43976,-0.053584,0.59201,-0.3052,0.89404,-0.32549,0.41496,0.26391,0.48185,0.016914,-0.12395,0.23508,-1.1536,0.097257,0.53626,0.46499,0.11401,-0.017578,0.58774,0.30043,-0.95269,0.88039,1.1609,0.03271,-1.0556,0.21363,-0.32918,-0.2626,-0.96393,-0.79459,-0.025202,-0.31552,-0.56841,0.86062,0.13984,-1.0248,-0.79385,1.2679,-0.27798,-0.80686,0.065857,-1.4113
Ivory Coast,0.43631,-0.3682495,-0.68213,0.570625,-0.24625999,-0.458132,-0.88413,0.22989999,0.37875,-0.61352503,0.37268502,-0.172529,0.493579,-0.1304895,0.186555,0.13338,0.681915,-0.18006499,-0.970345,-0.2345725,-0.400855,0.31314498,0.1265695,0.020110011,-0.49060002,-0.82791996,0.26476,0.52801,0.235075,0.2890365,2.13515,0.0725005,-0.685815,0.18269002,0.33936,0.514785,-1.09114,-0.70205,-0.41228002,-0.246802,-0.25042,0.99564,0.91776997,-1.5301,-0.3850775,0.64449,-0.331845,-0.061812,-0.219221,-1.4411249
Nepal,-0.29027,-0.37798,0.10886,0.62402,-0.51401,-0.92658,0.52134,-0.36278,0.98342,-1.0286,0.51692,-0.94017,0.58637,-0.26786,0.31031,0.71766,0.13968,0.76947,0.87923,1.1682,-0.08855,0.33188,0.18957,0.40837,1.144,-0.72363,0.0426,-0.78322,-1.2563,1.0379,2.3813,0.26632,-1.219,1.0931,-0.15541,0.41264,-0.21354,-0.48183,-0.54856,0.32199,-1.3961,0.27253,-0.020428,-0.69356,-0.30613,0.19296,-0.21088,-0.028779,0.55729,-1.7947
Cameroon,0.53697,-0.18605,-0.86564,0.98941,-0.41531,-0.2126,-0.10681,0.50669,0.60705,-0.1559,1.0621,-0.11987,0.057719,-0.98064,0.35293,-0.068311,0.50548,-0.46006,-1.0629,0.10057,-1.4829,0.44166,0.62605,0.4438,-0.14926,-0.75737,0.77885,0.22855,-1.0074,0.20792,0.86053,0.83673,-0.71389,0.38074,0.11318,-0.35707,-0.94896,0.070478,-0.21001,-0.20967,0.7525,0.96361,0.78309,-0.79588,-0.77539,1.4869,-0.10052,0.57207,-0.17017,-1.7893
Venezuela,0.25374,-0.13279,0.39656,1.1883,-0.36759,-0.70395,0.074684,0.46931,-0.092717,1.2899,0.84232,-0.28645,0.42057,0.17309,0.42469,-0.45683,-0.24398,-0.085802,0.36572,0.020408,-0.50871,-0.65908,0.22688,-0.2535,-0.73554,-1.4334,0.8889,0.14779,0.34656,0.28487,1.9534,0.15365,-0.8714,-0.12061,-0.76205,-0.77002,-1.3829,0.10867,0.039984,0.012471,-0.30518,0.75282,1.191,-1.4656,-0.76304,0.96938,-0.97976,0.17433,-0.32077,-0.66441
Niger,0.97551,-0.62071,-0.022078,0.69168,-0.76725,0.04829,-0.092538,0.6658,0.85185,0.47037,0.72477,-0.27164,0.37507,-0.51842,-0.098207,-0.24661,0.20658,0.20417,0.64677,0.68581,-0.69048,0.39629,1.2577,0.29152,-0.4014,-0.64817,0.075117,0.017122,-0.30174,0.74442,1.2814,-0.15703,-1.0697,0.5387,0.51027,0.026573,-1.4048,-0.96408,0.41322,0.48066,-0.5352,0.74351,0.47346,-1.6474,-0.5159,0.37666,-0.797,0.53674,0.091136,-1.7059
Australia,-0.66844,-0.028264,-0.36074,0.8417,-0.21838,0.20159,-0.79323,0.14662,1.0802,-0.64468,0.46575,0.14034,-0.18538,-0.61298,0.50717,0.60706,1.0197,-0.53141,-1.4366,0.28213,0.31179,0.38623,0.055987,0.38529,0.5494,-1.1372,1.0352,-0.66566,-0.82223,0.45742,2.7763,0.19196,0.80873,0.098878,0.14402,-0.37979,0.33395,-0.056501,-1.072,-1.3023,-0.030731,-0.38568,1.0704,-0.74367,0.31475,1.3934,-0.72732,-0.29135,0.1166,-0.52491
North Korea,-3.9994717e-05,0.44277,0.22049549,0.3860795,-0.58496,-0.38608,-0.18282,0.44269502,0.312035,-0.601938,-0.122535005,-0.50539,-0.0717085,-0.55562,-0.533001,0.76867497,0.440425,0.38986498,-0.499233,0.9438,0.4354,-0.0469815,0.2641335,-0.15895501,0.312642,-2.29105,0.73800504,0.310221,-0.199709,-0.43747997,3.3065,-0.343557,0.096498996,0.22196501,0.200295,-0.79973996,-0.2043815,-0.163095,-1.188055,-0.328525,-0.526195,-0.621,0.945885,-1.0985999,0.69155,0.2938515,-0.270185,0.55021,-0.662935,-0.42006
Syria,0.62395,0.77901,0.48223,-0.64884,-0.01705,0.026791,0.43694,0.82965,-0.25865,-0.06123,-0.14311,-0.64412,-0.66485,-0.50086,-0.19818,1.1363,0.93584,-0.493,0.88779,1.4441,0.41768,0.29601,0.82733,0.3406,-0.24956,-2.2131,0.48872,0.43886,0.47738,0.50218,2.0231,0.019003,-0.99317,0.073811,-0.002206,-0.3035,-0.51903,0.010207,-1.6223,0.89773,0.45601,0.27536,0.40537,-1.3459,-0.029235,-0.011326,-0.85618,1.5412,-0.86498,-1.12
Mali,0.56892,-0.7104,-0.71972,0.65931,0.32653,-0.76519,0.38495,0.27174,0.50178,0.17695,1.33,-0.51056,0.01722,-0.96601,0.15993,-0.042082,0.36109,-0.0017076,-0.13274,0.65821,-0.96072,0.63314,1.2608,0.74721,-0.1082,0.089694,0.28789,-0.10853,-1.0791,0.29107,1.1779,0.95533,-1.0139,0.5466,0.58648,0.44577,-1.2151,0.14371,-0.14767,0.15752,-0.0030661,0.85438,0.18497,-1.7849,-0.55437,0.7623,0.21419,0.13686,0.26559,-1.8499
Burkina Faso,0.84164,-0.39433998,-1.3262,0.639265,-0.194675,0.525565,0.1360035,0.0180668,0.27798,-0.24538499,0.41075,-0.8003,0.82591,-1.43695,0.38381,0.0430745,0.494205,-0.025803998,0.208375,0.761925,-0.87715,0.28189,1.1457,0.72986996,-0.59886503,-0.38679,1.00488,0.553825,-1.2981501,-0.15452501,0.612545,1.12195,-1.092715,-0.11009,0.618715,0.20201501,-1.5467999,-0.12472351,-0.0776405,-0.39323,-0.38439,1.36145,0.337465,-2.2158,-0.459445,0.994235,-0.1014235,0.494535,0.482845,-1.4958
Taiwan,-0.13589,0.12037,-0.006837,1.6744,0.11618,-0.50099,0.43352,-0.15161,0.33186,-0.085848,0.60356,-0.21089,1.2892,0.18856,-0.3983,0.41349,-0.9078,0.018521,0.36678,0.37967,0.74225,-0.43836,0.02491,-1.0814,0.89024,-1.8472,0.49904,-0.44734,-0.43678,-0.56959,3.1902,0.83871,-0.35024,0.097752,-0.68373,-1.0679,-0.56269,0.061889,-1.0296,0.074187,-1.3109,-0.31199,1.1262,-0.62423,0.62092,-0.61025,-0.60632,0.22841,0.36818,-0.12629
Sri Lanka,0.282765,-1.11675,-0.22749999,0.75394,0.423505,-0.689775,0.19341001,-0.0567875,0.916965,-0.47508,-0.117359504,-0.120240495,-0.321405,-0.93183506,0.1363045,-0.0022905003,0.69747,0.261245,-0.553905,0.896245,-0.42808998,1.2781999,0.138044,-0.009319,0.93735504,-0.37268,1.04171,-0.955005,-1.144745,0.832435,2.73175,0.2124655,-0.412555,1.1543,0.74417996,0.93833005,0.22384,-0.82518,-0.90524,-0.515575,-0.68436,0.234835,-0.14005801,-0.64937,0.052024998,1.164545,-0.524015,0.35608,0.735695,-1.62065
Malawi,0.46634,-0.57346,-0.55297,0.62645,-0.94786,-0.374,0.40582,-0.43248,1.3252,0.27348,0.25766,-0.1924,0.93611,-1.1164,0.49822,0.2364,-0.19405,0.14958,1.0155,0.6612,-0.57687,0.36722,0.68886,0.64274,0.026254,-0.52823,1.2274,-0.25766,-1.7507,0.4381,1.3701,0.72064,-0.8791,0.56346,0.012455,0.021285,-0.47542,-0.39783,0.35402,-0.94151,-0.7008,0.88755,0.034208,-0.64276,-0.50379,1.0895,-0.50862,-0.53186,0.61775,-1.4625
Zambia,-0.17757,-0.50645,-0.22243,1.1457,-0.77488,-0.78559,0.13365,0.3069,1.3491,-0.30157,0.83809,-0.12033,0.20056,-1.9045,0.74155,0.13686,0.50576,0.30668,1.0524,0.42794,-0.10982,-0.021512,0.59407,0.30597,0.37278,-0.29242,1.3158,-0.61571,-1.0199,0.68814,1.8967,0.61503,-0.44664,0.61566,-0.3682,0.14502,-0.48721,0.12132,0.25178,-0.15659,-0.20379,0.4569,0.028122,-1.0349,-0.31873,0.73584,-0.78921,0.40851,0.44637,-1.4546
Kazakhstan,-0.065779,1.0603,0.57762,2.0893,0.1261,-0.19819,0.3533,0.67546,-0.031148,0.13549,1.3371,-0.79659,0.55212,0.88363,0.046125,0.44741,-0.0051862,0.32572,-0.16924,1.3402,-0.081656,-0.71968,0.52118,-0.13891,0.44376,-1.2128,0.99193,0.03051,0.10906,-0.078068,1.1015,0.66691,-0.79133,0.098042,-0.67889,-0.27685,-1.0401,1.5999,-0.66095,0.59714,-0.046777,-0.13762,1.1731,-1.3276,-0.50121,0.57019,-0.68971,0.47721,-0.11119,-1.2761
Chad,0.22774,-0.23735,0.0837,0.6631,-0.083313,0.36334,-0.87094,0.66102,0.45916,-0.61721,0.17643,0.21562,-0.6279,-1.2591,0.53004,-0.17452,0.78299,-0.43618,0.2033,0.51239,-1.5731,0.58559,0.58009,0.31806,-0.24129,-0.49205,1.5368,-0.047268,0.20218,-0.68494,1.332,0.13886,-0.49475,0.34816,0.1758,0.44238,-0.79047,-0.93544,-0.073833,0.29935,0.055496,1.4497,-0.34884,-1.4731,-0.73016,0.23979,-0.14915,0.37741,-1.4316,-0.48522
Chile,0.33182,-0.16513,-0.54672,1.3101,-0.21218,-1.0186,0.37209,0.74408,-0.44245,0.91286,1.1364,-0.14136,0.91118,0.13516,0.50375,-0.58401,-0.28697,-0.28799,-0.099173,0.34281,-0.62559,-0.6669,0.55828,-0.31568,-0.70793,-0.62918,0.62175,0.17831,-0.15781,-0.13469,2.2996,-0.14002,-0.5948,-0.053659,-0.55316,-0.49428,-0.91637,0.47785,0.73395,-0.33678,-0.38148,0.33915,1.4632,-1.6686,-0.45462,1.1551,-0.45897,-0.31092,-0.08207,-0.52606
Romania,0.1232,0.36199,0.13819,0.1923,-0.93796,0.70297,0.57263,0.91297,-0.69626,-0.054828,1.2394,-0.87465,0.91791,-0.28632,0.71912,-0.23525,0.075219,-0.14894,0.41694,1.0402,-0.36619,-1.3843,-0.06398,0.38334,0.50793,-1.3401,0.81819,-0.084923,-0.83609,-0.68585,1.8433,0.8701,-0.13934,-0.2725,-1.367,0.22925,-0.041979,0.80299,0.038621,-0.38195,0.0072519,0.20913,1.0864,-2.0325,-0.46558,0.52418,-0.40482,0.10702,0.021184,-1.1139
Somalia,1.6923,-1.2384,0.023302,-0.28446,-0.11072,-1.0026,0.11622,0.060313,1.3184,-0.75777,0.17353,-0.19423,-0.63212,-0.44464,-0.052394,0.25147,0.42061,-0.24304,0.25432,1.0501,-0.95474,1.1957,1.0417,0.60341,-0.40913,-0.7663,0.19391,-0.26215,0.39542,1.7675,1.8788,0.26766,-1.1437,0.42057,0.42654,0.48236,-1.35,-0.98544,-0.81176,0.23537,-0.45664,1.0159,0.66635,-1.1092,-0.6567,0.78168,-0.57747,0.21721,-0.26422,-1.0247
Senegal,0.29969,-0.31439,-1.2383,0.73831,-0.24653,-0.48369,-0.0040698,0.30284,0.78424,0.097059,1.1031,-0.42051,0.11179,-1.1561,0.41021,-0.25947,0.27889,-0.59215,-0.15061,0.24424,-1.2295,0.50702,0.72863,0.55831,0.18439,-0.42442,0.84751,0.088667,-0.76831,-0.049706,1.0107,1.3925,-1.0833,0.48226,0.23325,-0.19641,-0.87,0.47918,-0.53717,0.17021,0.0059403,1.0617,0.53829,-1.6235,-0.57928,0.71837,-0.12864,-0.028876,0.22649,-1.6672
Guatemala,0.4832,0.059539,-0.49922,1.0602,-0.53573,-0.55772,-0.20081,0.40509,0.12715,0.19147,0.31567,-0.98392,0.67455,-0.38114,0.85951,-0.86557,-0.54393,-0.20637,0.39537,0.66231,-1.1747,0.18167,0.087974,0.074994,-0.25192,-0.73809,0.6165,0.077126,-0.076929,-0.41804,1.168,0.2817,-1.2357,-0.59877,-0.29372,0.093641,-0.81566,0.10088,0.22803,0.2606,-0.99728,0.53041,1.3326,-1.2191,-0.8208,0.93029,-0.54987,-0.091919,0.14569,-1.2455
Netherlands,-0.032669,-0.37075,-0.56831,0.032706,-0.16112,-0.20558,0.084165,0.38814,0.076116,0.059084,1.6459,-0.76493,-0.44912,-0.30316,1.0736,0.55036,1.0552,-1.2239,-1.1585,0.43487,0.28784,-0.42224,-0.14283,1.063,-1.053,-1.1665,0.19036,-0.52252,-0.79615,0.12746,1.6096,0.35691,-0.22035,-0.23128,-0.29734,-0.70532,0.63626,0.78947,-0.15596,-0.29645,0.92972,0.19664,1.9503,-1.2185,0.0092723,0.93407,-0.58845,-0.54178,-0.22943,-0.7371
Ecuador,0.62536,-0.27023,-0.29621,1.4095,-0.21244,-0.68203,0.0021002,0.67204,-0.43825,0.53187,1.0147,-0.34419,0.84355,-0.15407,0.76152,-0.70229,-0.39018,-0.17543,0.062147,0.49362,-1.5363,-0.61951,0.071709,-0.1349,-0.66791,-0.8335,1.1939,0.42555,0.029744,0.13039,1.6282,-0.038094,-1.1337,0.060749,-0.6041,-0.05053,-1.1834,0.072247,0.17952,-0.52291,-0.20043,0.45469,1.1979,-1.2852,-0.77524,0.96309,-0.45689,0.3413,0.0088349,-1.1663
Cambodia,0.88345,-0.38993,-0.45885,0.69292,-0.083129,-1.139,0.90755,0.06791,0.73287,-0.11709,0.29033,-0.49104,0.41981,-0.60143,0.98908,0.67646,0.31705,0.38288,1.0692,1.3824,0.21762,0.24352,0.35166,0.066776,0.16702,-0.96114,0.24652,-0.49908,-0.9227,0.53186,2.0819,0.23134,-0.68318,0.675,-0.13524,0.40413,-0.37735,0.066228,-0.6638,-0.17418,-1.2095,0.47432,0.52545,-0.81582,0.021408,0.061783,-0.65503,-0.18308,-0.08102,-1.4472
Zimbabwe,-0.56405,-0.83578,-0.40294,0.58531,-0.33904,-0.38982,0.2213,-0.012655,1.0989,-0.59159,-0.12069,-0.13803,-0.43715,-1.2012,0.79288,0.36965,0.97168,-0.2873,0.34649,0.028587,-0.046324,0.76211,0.33457,0.32289,0.15299,-0.67402,1.2314,-0.66878,-0.69693,1.1835,2.3964,0.44275,-0.35917,0.57823,-0.32921,0.14098,-0.11716,-0.57874,-0.52509,-0.82744,-0.37451,0.44321,0.28556,-0.551,0.072928,1.5266,-0.99166,0.22147,0.40409,-1.2424
Guinea,1.072,-1.1378,-0.65273,1.0777,-0.19542,-0.34261,0.45092,0.11533,0.23931,-0.43555,0.66682,0.12037,1.127,-0.6405,0.23153,-0.03131,0.4464,0.40983,-0.75202,0.83014,-0.71534,0.54008,0.97136,-0.017649,0.26586,-0.79866,1.1098,-0.4073,-0.89507,0.68066,1.7206,0.079305,-1.4735,0.13184,0.025484,0.35332,-0.99211,-0.57601,-0.42764,-0.75136,-0.36232,1.0448,0.49051,-1.1474,-0.38886,0.8203,-0.22731,-0.38463,0.21221,-1.3964
Benin,0.64632,-0.74097,-1.1731,0.86023,-0.3734,-0.31674,0.1694,-0.045947,0.21886,-0.32194,1.1378,-0.47269,0.1931,-0.89622,0.32577,-0.49659,-0.38411,-0.3817,0.1995,0.43025,-0.81952,0.10071,0.23482,0.48153,-0.26257,0.0089011,-0.054512,-0.26046,-1.1354,-0.22687,0.42819,1.0328,-1.0472,0.064773,0.35881,0.20513,-1.1072,0.36791,0.40135,0.68104,-0.25583,0.95252,0.98692,-1.598,-1.2706,1.3709,-0.030207,-0.045051,0.63319,-1.9322
Rwanda,1.9106,-1.242,-0.53617,-0.27452,0.078882,-0.39519,0.60819,-0.22835,0.34723,-0.40074,0.2673,-0.97398,-0.81133,-1.7306,1.1832,-0.093983,0.61908,-0.0056125,0.59615,0.47833,-0.66273,0.88934,0.36219,0.67531,-0.81791,-0.67285,0.44467,-0.10599,-0.60678,0.40193,1.5003,0.55987,-1.5564,-0.34097,-0.29879,0.47345,-0.9562,-0.65504,-0.37378,0.075983,-0.064402,1.0264,0.64083,-1.6023,-0.42944,0.53742,-0.28579,0.21683,-0.49362,-1.4089
Burundi,1.3299,-0.78947,-0.26832,-0.17486,-0.1186,-0.27713,0.39405,-0.10875,0.18305,-0.34024,0.47068,-1.0743,-0.54558,-0.81528,0.81435,0.34789,0.83385,-0.16436,0.87117,0.58616,-1.0451,0.93663,0.33239,0.63095,-0.57759,0.11579,0.73693,-0.24903,-0.30042,1.3883,1.5041,0.55306,-1.9817,0.26568,0.20435,0.28239,-0.9254,-0.95804,-0.12931,0.49552,-0.92299,1.0144,0.14852,-1.6524,-0.54762,0.8024,-0.23683,0.44152,-0.60459,-1.656
Bolivia,0.18261,-0.14717,-0.27514,1.2814,-0.71989,-0.534,0.051692,0.39056,-0.24156,0.94065,0.73153,-0.29269,0.94063,-0.42656,0.40414,-0.63543,0.11686,0.091649,0.71461,0.14784,-1.0229,-0.76748,0.28228,-0.13858,-0.4164,-0.65892,0.93466,0.011337,-0.014968,0.033741,1.7614,0.11591,-1.2124,0.12572,-0.56327,-0.20664,-1.6074,0.31712,0.35052,-0.11322,-0.67487,0.40403,0.99058,-1.3009,-0.70211,1.1,-0.80974,0.088512,-0.0040529,-1.3159
Tunisia,0.39391,0.62979,-0.6816,0.39088,-0.12773,-0.89035,0.19777,0.74735,0.049415,0.48968,1.0096,-0.77198,-0.18612,-0.80235,0.35377,0.62685,0.90408,-0.62233,-0.5297,1.707,-0.61551,0.066933,1.1838,0.83112,-0.38709,-0.53702,1.0299,0.0069134,-0.11293,0.4391,1.0551,0.88259,-1.0779,0.38011,0.17269,0.034423,-0.22544,1.0724,-0.82438,0.22687,0.7339,-0.32139,0.87174,-1.1258,0.41726,0.78995,-0.5656,0.4247,0.39997,-1.449
South Sudan,0.34533802,0.112345,-0.28136998,0.41672,-0.36658,-0.30273,-0.19725499,0.1180435,0.831365,-0.59969,0.039289996,-0.56198,-0.25771248,-1.10323,-0.309645,0.33964002,0.634995,0.073983505,-0.011164993,0.77664,-0.48995,0.56451,0.5473235,0.341555,-0.12720498,-1.6424,0.81882,0.032279998,-0.361713,0.19166999,2.8186998,-0.056715004,-0.69954497,0.405725,0.347085,-0.52946997,-0.63278997,-0.47445,-0.77496505,0.21157502,-0.371445,0.2833215,0.632165,-1.25885,0.080885,0.577105,-0.55917,0.17803499,-0.43913,-0.95385504
Haiti,1.208,-0.39422,0.076247,-0.5776,-0.26879,-0.96093,0.027638,0.41102,0.47767,-0.31904,0.19448,-0.43112,0.44631,-0.17826,0.73239,-0.22624,-0.072338,-0.43748,0.43896,0.45918,-0.84996,0.65215,-0.31119,-0.56993,-0.11243,-0.73371,0.11744,-0.30646,0.19749,1.0164,1.7217,0.92439,-1.1682,-0.45583,-0.53858,0.54889,-0.54384,-0.60364,0.25466,-0.17073,-1.0062,1.0164,1.031,-1.7236,-0.80423,1.0266,-0.70905,-0.22228,-0.3726,-0.43786
Belgium,0.28962,-0.37887,-0.97663,0.019838,-0.97961,0.79907,0.10908,0.79106,-0.15738,-0.30476,1.0234,-0.95763,-0.60707,-0.38167,0.92968,0.22708,0.56678,-1.0038,-0.626,-0.0070412,0.51372,-0.2229,-0.21294,1.3628,-0.877,-1.0357,-0.12762,-0.41415,-0.56493,0.38149,1.6566,0.68424,-0.28076,0.51899,-0.061303,-0.67941,0.022433,0.84534,0.11892,-0.19788,1.0083,0.5456,1.8171,-1.5074,0.074819,1.0516,-0.43676,-0.21519,0.059401,-0.49498
Jordan,-0.067766,1.3374,0.46885,0.56762,0.78882,0.054231,-0.70562,0.30646,-0.030009,-0.17922,0.18456,0.041657,-1.0832,-0.40831,0.72563,1.0185,0.64158,-0.47875,0.12663,0.7247,0.020762,0.52991,0.2019,-0.12955,-0.056138,-1.457,0.73463,0.045322,0.36243,-0.19072,1.8135,0.36106,-0.31145,0.12494,0.36438,-0.1666,-0.11732,0.096942,-0.63866,0.72358,-0.027591,0.67767,-0.063789,-0.9655,0.15212,-0.09569,-0.58146,0.41611,-0.88047,-0.22795
Dominican Republic,-0.15500864,0.2935,-0.4063035,0.65820503,-0.034265,-0.446345,-0.40293,0.612835,-0.49256,-0.09142999,1.1976,-0.4127165,0.640055,0.2027015,0.42312,-0.51899403,-0.83916,-0.343555,0.33868,0.72396,-1.058775,-0.22045399,-0.54181004,0.234285,-0.39820498,-1.355905,0.37022498,-0.519505,-0.218345,-0.1621575,2.1474,0.221345,-0.76055,0.020713497,-0.435547,-0.018002799,-0.56458,-0.0663525,-0.080849975,0.060275003,-0.18283501,0.489145,1.199,-1.21803,-0.69398,0.89202,-0.687575,-0.43476,-0.416815,-1.12165
United Arab Emirates,0.057231676,0.45323765,-0.211231,0.37711334,0.5021767,-0.57821,-0.48406336,0.22107665,0.46722332,-0.18078999,0.41684437,-0.28012866,-0.191795,0.03433701,-0.114357,0.6407167,0.44589067,-0.44786298,-0.27457,1.0041734,0.28816333,0.12035033,0.45971334,0.25740266,-0.6884,-1.6436332,0.5053433,-0.27748132,-0.09438,0.50703937,2.4979,0.66179335,-0.27797332,0.28789666,-0.102466665,-0.47984335,-0.36648068,0.087960005,-1.2921866,0.24141999,0.21282667,-0.25735,0.5593067,-0.42282975,0.178352,0.65594,-1.3440334,0.76023334,-0.60510665,-0.68498665
Cuba,-0.093604,0.50806,-0.17568,0.61962,-0.65162,-1.0921,-0.11877,0.42463,0.31752,0.80837,0.5214,-0.0092062,0.52537,0.33207,0.69942,-0.67507,-0.5808,-0.67245,0.23742,0.48976,-0.90103,0.12241,0.032081,-0.50658,0.070364,-1.8252,1.1578,-0.31298,0.50013,-0.15252,2.0478,0.040124,-0.96593,-0.25804,-0.96169,-0.68567,-0.51045,0.42022,-0.80896,0.23058,-0.57546,0.37642,1.8614,-0.80437,-0.1745,0.33694,-0.77838,-0.61114,-0.76292,-0.30031
Honduras,0.025776,-0.12008,-0.46778,0.91172,-0.82152,-1.0299,0.20309,0.84792,-0.15284,0.34456,0.65511,-0.18379,0.69299,-0.0666,0.76619,-0.68271,-0.29297,-0.56831,0.21593,0.34563,-1.0355,-0.017263,0.27843,-0.10596,-0.46382,-0.55806,1.1082,0.20783,0.10579,-0.14372,1.3976,0.68293,-1.1017,-0.33462,-0.46274,0.15586,-0.59096,-0.30478,0.012783,-0.18551,-0.7279,0.69644,1.2361,-1.5225,-1.1657,0.8767,-0.69366,-0.32842,0.15277,-1.1336
Czechia,-0.089804,-0.34172,-0.30513,-0.5915,-0.81979,0.317,0.71245,0.053214,-0.085817,-0.062305,0.35087,-0.50252,0.60675,-0.25879,-0.23062,-0.19601,-0.25238,0.13844,0.69757,0.6161,-0.37325,-0.77451,-0.19751,0.96652,0.20264,0.7379,0.17111,0.49239,0.56221,-0.15454,-0.82965,-0.14795,0.18225,-0.069332,-0.78971,0.066014,-0.24003,-0.27909,-0.49683,0.19357,0.48537,-0.49974,0.36831,-0.69755,-0.10888,-0.015705,0.60414,-0.069856,0.0085296,0.10995
Sweden,-0.086848,-0.054822,-0.21686,0.48929,0.090268,1.2334,-0.078229,0.86243,-0.012906,-0.30699,1.7013,-0.92249,-0.55586,-0.20242,1.0713,0.88238,0.40502,-0.7269,-0.64816,0.7063,0.44183,-0.28527,-0.30205,1.0943,0.33587,-1.2768,-0.18621,-0.92921,-1.0308,-0.12491,1.8197,0.90442,0.43316,0.933,-0.11454,-0.65215,0.50676,1.0817,0.25296,0.13582,0.6853,0.26261,0.85791,-0.95491,-0.53974,1.3396,-0.34398,0.3375,-0.45213,-1.0352
Tajikistan,0.37101,0.26774,0.93438,0.78333,-0.13574,-0.69718,0.83966,0.20224,0.13058,-0.17305,0.96632,-1.2593,0.056284,0.10914,-0.066973,0.28235,-0.4831,0.55903,1.0198,1.4392,-0.89613,-0.2196,0.2202,0.22252,-0.39318,-0.91659,0.87924,0.1471,-0.019567,0.051017,1.157,0.83976,-0.63527,0.26552,-0.22351,0.49488,-1.1719,0.22407,-0.67199,0.69379,-0.46751,0.5948,0.9976,-1.5044,-0.30812,0.079709,-0.1148,0.64199,-0.69675,-1.6809
Papua New Guinea,0.5141167,-0.5548033,-0.37464967,0.9822714,-0.14668167,-0.207781,-0.18682332,-0.055836666,0.02144433,-0.26044333,0.34774998,-0.037786003,0.78004664,-0.12962334,0.04353066,0.19019331,0.24228667,0.40528598,-0.63719,0.64741665,-0.16000332,0.40265,0.10713234,0.057605337,0.16172667,-1.0428666,0.6436567,-0.35600433,-0.68917674,0.18045835,2.2758334,-0.126361,-0.71085334,-0.14489,0.13533333,0.09871667,-0.52298665,-0.69161767,-0.28181002,-0.52812666,-0.5280733,0.63016504,0.35898232,-0.82586336,-0.33205602,0.7737734,-0.20135666,-0.025787324,-0.035013337,-0.75573
Portugal,0.6456,0.0049791,-0.67766,0.401,-0.75438,-0.82693,-0.23235,0.47536,-0.7391,0.38242,1.2815,0.20652,-0.010509,-0.88947,0.97918,-0.24879,-0.1911,-0.77615,-0.37822,0.19739,-1.0084,-0.40683,-0.47939,0.5094,0.18521,-0.79979,0.89761,-0.015352,-0.67984,0.4543,2.2591,0.92831,-0.52315,0.20742,-0.2015,-0.21062,-0.31176,0.31364,-0.43091,-0.79237,0.059534,0.34345,1.23,-1.3334,-1.0515,0.82561,-0.28397,-0.30602,1.0047,-1.3454
Azerbaijan,-0.61052,0.4156,0.036808,0.95578,-0.18122,0.078658,0.23312,0.93878,-0.066575,0.081547,1.0105,-1.1798,0.59793,-0.1938,0.0015989,0.50307,0.71694,0.43933,0.54428,1.6715,0.064466,-0.75966,0.54333,0.44842,-0.20378,-1.2921,0.10174,0.35811,0.12479,0.16222,1.2854,0.14713,-0.78834,0.24085,-0.5489,0.19907,-0.88117,0.93919,-0.14126,0.87833,-0.011964,0.1851,0.21347,-1.2712,-1.1444,0.7471,-0.97183,1.2198,-0.29333,-1.7772
Greece,0.58525,0.41562,-0.027563,-0.054355,-0.51295,0.31036,0.22298,0.28168,-1.3409,-0.17096,0.87762,0.11607,0.20055,0.010787,0.87665,0.66142,0.34807,-0.17357,-0.61898,0.89793,0.23915,-0.71939,-1.0643,0.1714,0.62876,-1.491,0.47072,-0.091562,-0.72593,0.058761,2.1492,1.032,0.15673,0.20119,-0.46821,0.10584,-0.15948,-0.48352,-0.60236,-0.43635,-0.40819,-0.096337,1.4404,-0.92939,-0.27673,0.95362,-0.12789,0.98709,0.58536,-1.711
Hungary,-0.021483,0.13682,-0.2768,0.19905,-0.31521,1.0067,0.49215,0.90384,-1.1265,-0.74805,1.1458,-0.50949,0.58527,-0.5568,1.1577,0.49947,0.78056,-0.17668,-0.31314,0.74884,0.48192,-1.4355,-0.777,0.35739,0.8932,-1.0255,0.23875,-0.86594,-0.39995,-0.041227,1.6365,1.3103,-0.035055,0.3094,-1.1051,0.16947,0.00315,0.56715,-0.092167,0.18836,0.058087,0.33141,0.90904,-1.8067,-0.60006,0.70045,-0.65737,-0.034144,0.11556,-1.0432
Togo,0.19529,-0.52502,-0.71771,0.72135,-0.29051,-0.1874,0.51069,0.58006,-0.041087,-0.30004,1.0944,-0.37918,-0.21529,-0.95325,0.35541,0.55267,0.24563,-0.39839,0.070185,0.07525,-1.082,0.44102,0.26514,0.55158,-0.022927,-0.3351,0.85566,-0.22974,-0.8948,0.59545,0.60863,1.0718,-1.502,0.48063,0.68638,-0.086186,-0.35644,-0.33286,-0.22102,0.13718,-0.28212,1.1303,-0.071038,-1.5507,-0.69185,1.3221,0.057204,0.11625,0.12468,-1.6229
Israel,0.062029,0.53371,0.54099,-0.53311,0.47668,0.46988,0.021711,0.68731,-0.51518,-0.22619,-0.071631,-1.1262,-0.55618,0.19939,-0.094747,1.3724,1.2533,-1.1202,0.394,1.5422,0.63093,0.56363,-0.30163,-0.31444,-0.088435,-2.0561,0.43319,0.032101,0.75979,-0.00098003,2.899,-0.10687,-0.91409,0.06818,-0.6215,-0.043759,0.75295,-0.79991,-1.0516,0.93283,0.059276,-0.24426,0.38394,-1.0952,0.7231,-0.26365,-0.93865,1.5106,-0.96647,-0.19816
Austria,0.68244,0.52086,-0.24474,0.13063,-0.18005,1.1871,0.63095,0.86369,-0.63862,-1.0327,0.84655,-1.1607,-0.93247,-0.21312,1.184,0.43035,0.71449,-0.89772,-0.73869,0.36402,0.53176,-1.076,-0.6377,1.0677,0.14867,-1.4191,-0.27277,-0.72567,-1.0916,0.31745,1.3551,0.80775,0.28205,0.42085,-1.0809,-1.023,0.083998,1.455,0.14616,0.65347,0.24415,0.20305,1.706,-0.94448,-0.12588,0.54781,-0.54201,-0.45132,-0.16022,-0.56454
Belarus,-0.94421,1.0786,0.64533,0.61673,-0.51693,0.44311,1.2423,1.1673,-0.87801,0.40447,1.0488,-0.885,0.053881,0.64023,0.5308,0.086933,0.4759,-0.39187,0.56812,0.69614,0.17011,-0.84547,0.046456,0.23875,-0.006793,-1.3982,1.0796,0.12269,0.41629,0.033562,1.4672,0.65303,-0.24038,-0.015431,-1.5081,-0.095545,0.12897,1.0379,-0.3988,0.4478,0.46349,0.31522,1.611,-1.5023,-0.40804,0.57424,-1.2029,0.23019,-0.25728,-1.0101
Switzerland,0.79869,0.33264,-0.91059,0.45683,-0.2667,0.70403,-0.41156,0.50774,-0.1844,-0.42769,1.1319,-0.96273,-0.79635,-0.10553,1.5255,0.13742,0.57205,-1.1546,-0.46592,0.61952,0.10267,-0.42356,-0.58459,1.0209,-0.63405,-1.1638,0.28353,-0.035803,-1.0052,-0.39756,1.6263,0.24798,0.11435,0.39505,-0.8008,-1.129,-0.15443,1.1941,0.44104,-0.067363,0.46842,-0.3743,2.289,-0.46953,-0.22216,0.093308,-0.26906,-0.043028,-0.10183,-0.77533
Sierra Leone,0.33867502,-0.456113,-0.35484,0.698105,-0.2526015,-0.73826003,-0.142945,0.14908999,0.7712,-0.254455,0.28002,-0.1274125,-0.542355,-1.2646,0.501695,-0.55719,0.379215,0.220545,0.68742,-0.260075,-1.11866,1.07674,0.32715,0.0536915,-0.832105,-0.25232,0.300735,-0.2112215,-0.361745,0.557805,1.55105,-0.51744497,-1.29925,-0.0021300018,0.66437,0.375099,-1.05192,-1.03554,-0.155509,-0.29769,-0.66640496,0.86067,0.49374998,-1.5237999,-0.838625,0.137024,-0.0840895,-0.457515,-0.742665,-1.15645
Laos,0.77008,-0.12345,-0.34513,0.76403,-0.3097,-0.8306,0.45169,-0.17555,0.49738,-0.10069,0.84521,-0.21213,0.70037,-0.24167,0.28874,0.22162,0.023042,0.46191,0.54729,1.82,-0.34353,-0.28361,0.78058,0.19321,0.13623,-0.75847,0.88029,-0.25643,-0.74019,-0.20613,1.7639,0.42747,-0.56429,0.66922,-0.13649,0.14005,-0.80778,0.12714,-1.1088,0.1139,-1.0869,-0.078858,0.84265,-1.0694,0.25472,-0.30264,-0.18871,0.0067634,-0.026547,-1.5382
Hong Kong,-0.20225,0.028088503,-0.38712,1.022045,0.505795,-1.2831,0.14105,-0.737535,0.434965,-0.094342,0.45645,0.25231498,0.509235,0.243135,0.34781,0.64827,-0.49366498,-0.3419,-0.45536,0.79659,1.36665,0.047569998,-0.394785,-0.320565,0.56931496,-1.44785,0.43492502,-0.780635,-1.2124,0.069580495,3.2266002,0.85706997,0.882905,0.55975497,-0.52469504,-0.91678,0.223975,-0.099861994,-0.716435,-0.25853,-1.1406,-0.0183949,0.90378,-0.0010280004,0.46061,-0.662765,-0.79605,-0.903005,1.27675,-0.023496699
Libya,1.1175,0.11304,-0.524,-0.09392,-0.20228,-0.35676,0.33158,0.57465,1.0743,0.66838,0.6599,0.052987,-0.11815,-0.45745,0.76942,0.50643,0.15345,-0.00023733,0.23287,1.0497,0.41522,0.6527,0.69387,-0.15551,-0.48766,-1.82,0.91132,0.15216,0.18147,0.47752,1.3073,0.12154,-1.2824,0.73786,0.15086,-0.57185,-0.18338,0.55734,-0.95781,0.29027,0.3063,-0.042511,1.4244,-0.93796,0.045375,0.80186,-1.094,1.13,-0.91995,-1.3352
Kyrgyzstan,0.051077,0.51048,0.95039,1.0845,-0.16874,-0.99711,0.92271,0.62961,-0.55634,0.29186,0.86277,-1.2692,0.54312,0.31374,0.32269,0.68511,-0.20779,0.00026294,0.99215,1.3815,-0.7308,-0.36224,0.033725,0.10334,-0.48639,-0.70983,0.9202,0.17536,-0.041076,0.34851,1.0424,0.90667,-0.94521,-0.62354,-0.35662,0.42684,-0.75035,-0.44124,-0.4556,0.60492,-0.96219,0.93233,0.46075,-1.6017,-0.83255,0.40808,-0.63194,0.47221,-0.44396,-1.2843
Paraguay,0.16228,-0.024453,-1.0367,1.5974,0.049995,-0.72639,0.15881,0.70747,-0.70077,0.58038,0.84006,-0.22374,0.27374,-0.2677,0.48855,-1.0332,-0.13596,-0.45049,-0.15647,0.73796,-1.4439,-0.54844,0.3708,0.040976,-0.4604,-0.53227,1.4528,0.21522,-0.36465,-0.61799,1.4293,0.7113,-0.58308,0.0065936,-0.59557,-0.069525,-0.95016,0.70791,0.21123,-0.37657,-0.41277,0.22715,1.1477,-1.1145,-0.85407,0.89207,-0.35063,-0.005006,0.48429,-1.039
Nicaragua,0.1674,-0.060194,-0.035809,0.64935,-1.1387,-0.54355,-0.048298,0.54381,-0.063618,0.55483,0.54025,-0.44035,1.178,-0.019714,0.28724,-0.62569,-0.53824,-0.43185,0.56765,0.8192,-1.0974,0.029499,0.50677,-0.75154,-0.37259,-0.90663,0.54668,0.090045,0.20422,-0.16859,1.1335,0.17238,-1.3041,-0.39272,-0.80974,0.0096792,-1.0767,-0.011353,0.22431,0.13494,-0.75196,0.68028,1.1327,-1.3315,-1.2483,0.73685,-0.93086,-0.22116,-0.52209,-1.1006
Bulgaria,-0.03782,0.4145,0.35012,0.1042,0.089756,0.24751,0.7687,0.94968,-0.70742,-0.019418,1.6835,-0.71552,0.36007,-0.24366,0.87845,0.32715,0.39363,0.084988,0.3108,1.0749,-0.02114,-1.1334,-0.42736,0.35778,0.32541,-1.2076,0.74353,-0.29241,-0.47896,-0.084528,1.7405,0.97221,-0.22073,0.16867,-0.55209,0.41088,-0.10449,0.83773,-0.34655,0.013352,-0.024027,0.32162,1.112,-2.029,-0.73279,0.95821,-0.2499,0.74299,-0.059382,-1.6781
Serbia,-0.082613,-0.12671,0.402,0.44421,0.061098,0.23225,1.2263,1.2123,-1.2876,0.15957,1.0845,-1.8198,-0.79212,-0.32621,0.48031,0.64137,0.51567,-0.49401,1.5049,0.56216,-0.55111,-0.20864,-0.55665,1.0712,-0.93587,-1.0287,0.055744,0.3057,0.25088,-0.20528,2.2384,0.19199,-0.85477,-0.44044,-0.49902,-0.042769,-0.025799,0.038535,-0.58212,0.070392,0.12685,0.18334,0.66367,-2.1312,-1.0096,0.48833,-0.66836,0.35822,-0.379,-1.1743
El Salvador,0.366485,0.905275,-0.257305,0.79526997,-0.28148,-1.7196,-0.29930001,0.090203494,-0.222555,1.259905,0.594705,-0.644585,-0.07084,-0.2149515,0.59795,-0.82018,-0.17168,-0.17994499,0.21796,1.086445,-1.4384,0.147897,0.2923185,-0.1747505,-0.9785,-0.5214,-0.20110002,0.2960335,0.129715,-0.17772,1.7611499,-0.491315,-1.02274,-0.16394502,-0.153171,8.499622e-05,-0.098120004,0.1011285,0.658575,0.83417,-0.5013595,0.570155,0.611425,-1.5887,-0.09236501,-0.10846001,-0.927375,-0.577595,0.47531003,-0.27538
Republic of the Congo,0.56518,0.13294001,-0.30919424,0.43157253,0.09324001,0.15909323,-0.010382496,0.007364992,-0.008042559,-0.6160325,0.4788205,-0.4780375,-0.18253252,-0.50375175,0.24030262,-0.07385,0.109321244,-0.11439125,-0.197785,0.3130465,-0.39773524,-0.07464248,0.034095243,0.04882,-0.29607,-1.4648825,-0.29504248,-0.195717,-0.22750424,0.24630374,3.1524248,-0.05695225,-0.83473,-0.19624326,-0.23015946,0.07128033,-0.5383575,-0.26104525,-0.10998949,0.0405455,-0.057455502,0.34227997,0.37015826,-0.89987874,-0.58397746,0.59328,-0.27154878,-0.14260626,-0.3090445,-1.091665
Denmark,0.054976,0.10817,-0.50324,-0.019769,0.24695,1.1584,-0.26947,0.0031433,0.13016,-0.89177,1.217,-0.63195,-0.32401,-0.5139,0.87985,0.75084,0.84651,-1.0341,-0.87887,1.0882,0.49265,-0.59829,-0.048051,1.0969,0.20229,-1.2686,0.29324,-0.49264,-0.96397,-0.13358,1.4462,1.1363,0.082198,0.58515,-0.8055,-0.36287,0.44576,0.77141,-0.80198,0.08235,1.032,0.031318,0.88945,-1.2146,0.049257,0.85534,-0.5116,0.13401,-0.23439,-1.0067
Singapore,0.18102,-0.025347,-0.20911,1.2698,0.39942,-0.99438,0.13409,-0.72971,0.4287,0.076042,0.75905,0.22376,0.2026,0.12141,0.19414,0.64833,-0.6344,0.18096,-0.65794,0.84872,1.4894,0.47705,-0.15498,-0.33887,0.086858,-1.2096,1.0729,-0.43666,-1.17,0.39485,2.6697,0.74892,0.86961,0.60402,0.070814,-0.86101,-0.12432,-0.15498,-0.54342,-0.35908,-0.68323,-0.11932,1.2339,-0.28552,0.39198,-0.18383,-0.59499,-0.12132,1.1343,-0.43181
Lebanon,0.61099,0.22178,0.465,-0.65615,0.051067,-0.19286,0.17782,0.88151,-0.044085,-0.65499,-0.1737,-1.3923,-0.56698,-0.30894,-0.21569,0.79511,0.86659,-0.42232,0.20173,1.4308,-0.24653,0.9494,0.048814,0.46067,-0.67189,-1.3736,0.027747,0.27568,0.70622,1.0839,2.1865,0.20462,-1.1198,0.24473,0.12295,0.37059,-0.31139,-0.95159,-0.86855,0.61266,0.096185,0.34315,0.40441,-1.5101,-0.18955,0.44369,-0.85606,1.32,-0.83578,-0.71802
Finland,-0.42922,0.44774,-0.01432,0.70618,-0.37404,1.3434,-1.0956,0.61039,-0.18392,-0.74518,2.0268,-1.1603,-0.19356,-0.025745,0.18311,0.15701,-0.38501,-0.24808,-0.13685,0.33002,-0.26976,-0.54004,-0.39968,0.71358,0.70703,-0.49809,-0.076159,-0.14174,-0.37686,-0.45351,1.5626,1.1449,-0.17127,0.61398,-0.42494,-0.83716,-0.16907,1.1466,-0.22342,0.57148,0.17596,-0.81111,1.0172,-1.8068,-0.60366,0.78446,-0.21203,0.91585,0.032117,-1.1573
Liberia,0.54136,-0.74373,-0.23189,0.19581,0.028852,-0.49948,-0.053816,0.21406,0.8866,-0.8996,0.099487,-0.18622,-0.49311,-1.461,0.5277,-0.0050899,0.28297,0.070078,0.74896,0.21815,-0.91174,1.1891,0.32227,-0.11866,-0.58618,-0.35277,0.90465,-0.40658,0.10929,1.0912,1.3483,0.23836,-1.5349,0.10704,0.2541,0.42619,-1.3885,-0.98357,-0.37755,-0.53001,-0.44106,0.58118,0.39733,-1.632,-0.82605,1.0047,-0.3513,-0.29048,-0.96537,-1.4087
Norway,-0.19114,0.23106,-0.48758,0.21964,0.29405,1.3024,-0.6612,0.57164,0.46737,-0.94885,1.3151,-0.52541,-0.1717,-0.33167,0.6178,0.5718,1.6381,-0.29936,-0.90686,0.86231,0.82501,-0.59277,0.17933,0.67591,0.54459,-0.99754,0.055245,-0.37603,-0.43805,-0.05424,1.4531,0.72883,-0.4747,1.1558,-0.23406,-0.51622,-0.029749,0.61013,-0.11118,0.67288,0.14379,-0.29918,0.4844,-1.5894,-0.70701,0.52108,-0.59593,0.86088,-0.12518,-1.3032
Slovakia,-0.21978,-0.16603,-0.085339,0.206,-0.017665,1.0387,0.42611,0.63721,-0.8737,-0.84593,1.1034,-1.773,0.40377,0.070856,0.87029,0.69693,0.339,-0.57017,0.28458,1.2144,-0.73606,-1.8076,-0.56963,1.1518,0.072443,-0.82973,0.89899,0.15436,-0.55966,-0.78481,1.5873,1.3385,0.45336,0.021012,-1.1352,0.11131,0.056043,1.2492,-0.29628,-0.36436,0.12128,0.20048,0.89657,-1.9768,-0.23409,1.199,-0.45686,0.19381,-0.00071542,-0.56912
Palestine,-0.044958,0.39499,-0.21723,-1.0236,0.65909,-0.43851,-0.069607,0.033981,-0.2177,-1.0148,0.41336,-0.50407,-0.51706,0.28764,-0.42436,0.88434,1.244,-0.37526,0.39192,2.0299,0.51237,0.48824,0.22778,0.3192,-0.17666,-0.91965,-0.76466,-0.47997,0.36649,0.36036,1.9082,0.070612,-1.3896,0.10683,-1.0106,-0.077972,0.27246,-0.85837,-0.62585,1.2614,-0.18232,-0.96435,-0.050736,-0.78405,-0.79476,0.018975,-1.2101,0.39295,-0.65437,-0.48412
Central African Republic,-0.13719334,0.089980006,-0.4924957,0.50475335,0.22514667,-0.342545,-0.172894,-0.17994766,-0.18766399,-0.6773467,0.6278483,-0.6537,0.37041998,-0.22018234,-0.06465333,0.166848,0.13009967,0.0031160016,-0.059383344,0.46872666,-0.31662,-0.09455665,-0.28924632,0.30142,-0.23072,-1.4478499,0.28483668,-0.18507667,-0.79359,0.24885166,3.2701666,0.12735,-0.39078668,-0.238357,-0.3798733,-0.079026,-0.60659665,-0.235215,-0.39821997,-0.096949995,-0.26819333,0.4065567,0.743238,-1.21097,-0.20247333,0.9508066,-0.47647667,-0.028234333,-0.030958017,-1.0061034
Oman,0.2382,0.61079,-0.23243,1.0825,0.39206,-1.2596,0.097217,0.46552,0.78919,0.28893,0.80031,0.13312,0.43024,0.034124,-0.20408,1.0019,0.44743,-0.42644,-0.53426,1.9992,0.13003,-0.37084,1.3509,-0.17813,-0.5105,-0.82591,0.85283,0.16246,-0.11922,0.099628,1.0946,1.2769,0.044349,1.1501,0.060106,-0.10641,-0.58533,0.5343,-1.0795,0.6401,0.14623,0.14874,0.28599,-0.86057,0.0056307,0.44933,-1.0332,0.77513,-0.5488,-0.92265
Ireland,-0.2706,-0.2402,-0.88009,-0.40444,-0.011622,1.1021,-0.71965,0.51839,-0.0030454,-1.2369,0.20235,-0.036546,-0.69768,-0.98629,0.56019,0.60613,1.1449,-0.59555,-0.80208,0.32675,0.34654,-0.036589,-0.28541,1.3005,0.026286,-0.91857,0.3044,-0.6748,-0.78459,0.78328,2.3535,0.70181,0.24037,0.037098,0.17612,-0.092781,0.0065967,-0.51562,-0.39947,-0.79875,-0.009335,0.12563,-0.26138,-0.66795,-0.64793,1.2329,-0.542,0.2015,0.29772,-0.98084
New Zealand,-0.44804502,0.03371501,-0.38700953,0.31530198,-0.07214551,0.1360585,-1.2784,-0.46282986,0.112749994,-0.50974,0.099425,0.24485101,0.069520004,0.100735,0.024152499,0.34921998,0.26602998,-0.088185996,-1.113305,-0.1137895,0.57209,0.212855,-0.34512356,0.20114,0.07821502,-1.314245,0.26775998,-0.36380148,-0.56461,0.23933701,3.0892,0.186591,0.11355999,-0.21862,0.41749,-0.2868,0.14476001,-0.20671651,-0.407295,-0.839235,-0.22584,-0.0267675,0.4264835,-0.569785,-0.144834,1.2074499,-0.40047,0.095754,0.258645,-0.037855014
Mauritania,0.48284,-0.27931,-0.37306,0.90764,-0.49389,-0.51505,0.32913,0.29726,0.58715,0.51739,0.6424,-0.72295,0.18498,-0.1057,0.13746,0.61941,0.17508,-0.33052,0.1299,1.027,-0.4007,0.88466,1.1652,0.46682,-0.58102,-0.37113,0.78907,0.035196,-0.029163,1.0705,0.64222,0.36859,-1.6863,0.36701,0.51992,-0.15051,-1.0827,-0.424,-1.0757,0.37758,-0.3705,0.7285,0.74927,-1.2656,-0.75801,0.62022,-0.56852,-0.24735,0.23041,-2.0879
Costa Rica,0.383035,0.289875,-0.735155,1.48795,-0.44782,-0.68313,-0.592475,0.40573502,-0.04173465,0.532515,0.89796495,-0.23472,0.71053505,-0.21568,0.66051495,-0.84142995,-0.29944,-0.54592,-0.069699004,0.142765,-1.3227999,-0.022126999,-0.051324002,0.068493,-0.160431,-0.634265,1.2199,0.282415,-0.55836,-0.46914,1.5289,0.2970245,-0.819125,-0.305435,-0.30822998,-0.34113002,-0.62863004,0.75689,0.176719,-0.45458,-0.16932249,0.50512,1.2901,-1.20145,-0.57028,0.777105,-0.336055,-0.2175495,0.509005,-0.69114
Kuwait,0.076987,-0.10634,0.26483,0.39973,0.80754,-1.2821,0.57812,0.71644,0.77964,-0.45965,0.51944,-0.48755,0.12057,-0.098169,0.1824,1.0515,0.076189,-0.074031,-0.42397,1.5644,0.7049,0.14296,0.72488,-0.5315,-0.77209,-1.5872,0.53425,0.0022264,0.65239,0.68511,1.8365,0.61336,-0.26428,0.84636,-0.18097,-0.047729,-0.1466,0.03132,-1.0186,0.52937,0.20436,-0.13804,0.9226,-0.80032,-0.023239,0.41727,-1.3953,1.0558,-1.0629,-0.65654
Panama,0.56743,0.18493,-0.33128,1.0566,-0.65425,-0.98784,-0.54799,0.20584,0.42533,0.14075,0.71259,0.3603,0.75888,-0.11527,0.18287,-0.36164,-0.90673,-0.43694,-0.41105,0.8268,-0.50118,-0.40204,0.11172,-0.68261,-0.43978,-1.3897,1.0037,0.1448,0.37861,-0.49738,1.1961,0.27705,-1.0443,-0.22536,-0.16037,-0.44734,-0.63875,0.6685,-0.4546,0.022188,-0.44792,0.26483,1.6449,-1.0097,-1.1144,0.45903,-0.68261,-0.80521,0.015768,-0.61648
Croatia,0.17891,-0.40752,-0.043038,0.47625,-0.14171,0.013908,0.58128,0.90453,-0.8882,-0.69606,1.0277,-1.729,-0.83689,-1.2076,0.96837,0.28508,0.35819,-0.61004,0.75198,0.57405,-1.2163,-0.46473,-0.56318,0.8676,-0.76482,-0.87801,0.31141,0.051503,0.38433,-0.46045,1.9229,0.46344,-0.74,0.13063,-0.31505,0.36124,-0.14866,0.59128,-1.0077,-0.17099,0.49151,0.5279,1.02,-2.1465,-0.81584,0.50713,-0.017365,0.59254,-1.0431,-1.053
Georgia,-1.3427,0.4592,0.19281,0.71305,-0.5934,0.063595,-0.87187,0.79427,-0.28496,-1.0274,-0.3005,-1.1219,0.41312,-0.78615,-0.3023,0.34274,-0.03919,0.23077,0.10951,0.53196,-0.45369,-0.0050708,-0.30418,-0.11958,-0.13399,-2.0671,0.22732,-0.057002,0.33504,-0.53461,1.9394,-0.18969,-0.806,-0.85693,0.18234,-0.051312,-0.737,-0.042606,0.16411,0.11965,-0.33128,0.24235,0.42535,-1.1329,-0.37384,1.0152,-0.24836,0.47535,-0.95568,0.11488
Eritrea,0.95856,-0.26381,-0.56342,-0.0031179,-0.60321,0.31944,0.426,-0.29573,0.87776,-0.98176,0.57713,-0.34922,-0.29971,-1.5108,0.16483,0.73844,0.10036,-0.25613,0.70721,1.1273,-1.2096,0.56608,1.0328,0.4166,-0.30616,-1.0554,0.99353,0.51599,-0.19995,0.70786,0.92455,0.25852,-1.5866,1.1866,-0.043325,-0.36074,-0.93544,-0.45517,-1.5119,0.20262,0.3034,0.38047,0.64596,-0.86142,-0.37925,-0.10325,-0.26215,1.1982,-0.74288,-1.878
Mongolia,-0.32709,0.17414,-0.18437,1.2627,-0.2381,-0.32171,0.71653,0.37769,0.54583,-0.66184,0.85926,-0.80837,1.4846,-0.18592,-0.3385,0.73574,-0.22983,0.88576,0.41389,1.7378,0.13083,-0.4703,0.6945,-0.60043,1.0565,-0.73191,-0.17748,-0.19267,-0.30007,-0.32025,1.7494,0.49828,-0.19244,0.83145,-0.68064,0.25022,-0.83961,0.94439,-0.45204,0.45616,-1.2198,-0.23103,0.27238,-0.96236,-0.32307,0.46316,-0.52925,0.12827,-0.35751,-1.4809
Uruguay,-0.23611,0.031758,-1.0101,1.0408,-0.62919,-0.75547,-0.1614,0.5383,-0.43745,0.51092,0.91057,0.047937,0.11051,-0.05014,0.55766,-0.95499,0.42196,-0.69138,-0.1365,0.39202,-0.9861,-0.6519,0.37806,-0.084488,-0.4727,-0.27675,1.5333,0.42947,-0.39353,-0.55228,1.7916,0.14078,-0.60056,0.033476,-0.76549,-0.24569,-0.70657,0.70725,0.14833,-0.54666,-0.45226,-0.15179,1.4332,-1.4858,-0.78428,1.0251,-0.29068,0.10969,0.2023,-1.1487
Puerto Rico,-0.381135,-0.1358205,-0.7496,1.3044,-0.427535,-0.623955,-0.55479,0.639755,0.016335003,0.334924,0.70195,-0.38837,1.46755,0.071333006,0.34806502,-1.17205,-0.78948,-0.1649095,-0.64348,-0.11726101,-0.8627,-0.3801,-0.43958002,0.152733,-0.29624,-1.06495,0.27293,-0.38671,0.0887345,-0.83245003,1.3824999,0.20723,-0.861535,-1.1315501,-0.26243,-0.45612997,-0.55354,-0.18732,0.115521505,0.18699999,-1.0267999,0.80925,1.1012499,-0.83054,-1.3654001,0.23326865,-0.60257995,-1.1584,0.263205,0.0927895
Bosnia and Herzegovina,0.33819667,-0.18875666,-0.43289664,-0.24681658,0.24435668,0.3296786,0.28712332,0.26189998,-0.29063806,-0.9470134,0.52507,-0.8601733,-0.7155101,-0.6079133,0.25175667,0.3883017,0.5219397,-0.16243167,0.5324967,0.35178003,-0.22135,0.26659402,0.14601333,0.5676814,-0.7825033,-0.8070764,-0.34757665,0.09044234,0.3430197,-0.011337332,2.3880332,0.45655,-0.64847,-0.17815667,0.020827329,0.30931666,-0.38396668,0.14789332,-0.21373333,0.47517666,-0.017297665,0.30326602,0.69583327,-1.3704233,-0.80592996,0.47590336,-0.23629667,0.41212332,-0.8650233,-0.5292
Qatar,0.43004,0.85009,-0.16375,1.7514,0.4808,-1.1872,0.19296,0.62046,0.5268,0.35689,0.64501,-0.42081,-0.4999,0.34289,0.44565,1.1792,0.28463,0.14784,-0.48782,1.5341,0.49366,0.05371,1.1879,0.20801,-0.84468,-1.0652,0.74372,0.10317,-0.36471,0.55021,1.4133,0.90428,-0.46445,1.1117,0.066894,-0.32067,-0.32593,1.0573,-1.1193,0.065482,0.67807,-0.19683,0.22957,-0.48114,0.25305,0.65852,-1.1364,0.9468,-0.74194,-0.61871
Moldova,-0.38259,-0.055185,-0.072572,0.37652,-0.25396,0.55631,0.6465,1.0674,-0.83289,-0.09168,1.3114,-1.4457,0.69772,0.16086,0.2982,-0.13268,0.052592,-0.099051,0.77615,1.1997,-0.46979,-1.0753,0.39353,0.87924,-0.35846,-0.69089,0.58215,0.32663,-0.059765,-0.101,1.1704,0.988,-0.85025,0.027834,-1.2677,0.025591,-0.73861,0.35132,0.08577,0.15347,0.042176,0.037665,0.528,-1.9217,-1.3699,0.57085,-0.55464,0.66005,-0.035318,-1.1753
Namibia,0.019394,-0.73619,-0.44491,0.89101,-0.53444,-0.26834,-0.090734,0.058062,0.59545,-0.50809,0.56052,-0.45493,0.34681,-1.7127,0.16376,0.27474,0.81076,0.30297,0.28567,0.65971,-0.61503,0.34116,0.79873,0.15116,0.24025,0.0026382,1.1611,-0.1506,-0.97015,0.08719,1.1992,0.46578,-0.85664,0.63322,-0.036252,0.20249,-0.74561,0.41878,-0.68956,-0.71835,0.22255,0.18038,0.25942,-1.5375,-0.28957,1.1755,-0.4884,0.0089203,-0.17737,-1.6322
Armenia,-0.15626,0.49809,0.024961,0.62382,-0.079482,0.53491,0.35347,0.79883,-0.57264,-0.32019,0.90185,-1.0048,0.11208,-0.95002,0.47689,0.22502,0.018065,0.061433,0.85355,1.5188,-0.40844,-0.75955,-0.23846,0.26688,0.2323,-0.90693,0.14332,-0.23579,0.33378,0.034205,1.0826,0.46929,-0.66613,0.35783,-0.78036,0.3243,-0.76814,0.53815,-0.54073,0.80375,0.38856,0.1285,0.28122,-1.4498,-1.1604,1.247,-0.5359,0.94011,-1.0068,-1.7738
Lithuania,-0.65122,0.52246,0.16636,0.10789,0.041058,0.47407,0.15475,1.1765,-1.3078,-0.34645,1.5255,-0.96543,0.4887,0.11694,0.6407,0.6696,0.12879,-0.49591,-0.1158,1.0476,0.083026,-1.2562,-0.69614,0.35471,-0.24826,-1.2218,0.03608,-0.091295,0.11776,-0.31673,0.64839,1.3103,-0.35295,-0.37799,-0.37184,0.084381,-0.48991,0.58557,-0.19567,0.30082,-0.10875,-0.081218,1.3148,-1.5065,-1.4214,0.85228,-0.50404,0.66432,-0.13549,-1.5817
Jamaica,-0.87192,0.52921,-0.66779,1.2121,-0.65294,-0.2571,-0.62654,0.69156,0.84314,-0.17653,0.28508,-0.23654,0.48197,-0.85886,0.22546,0.18766,0.08097,-0.30444,-0.74569,-0.30495,-0.23869,0.88703,-0.38574,0.48879,0.34946,-0.80061,0.96332,-0.12109,-0.19357,-0.0021095,0.89561,0.1756,-0.020643,-0.26454,0.09332,-0.53725,-0.0092473,-0.35651,-0.18406,-0.35911,-0.07267,0.71955,0.92908,-0.85407,-0.35606,1.2545,-0.78895,-1.3215,0.071965,-0.86031
Albania,0.83302,-0.45109,0.036124,-0.071542,-0.43803,-0.35345,0.44737,0.80139,-0.68828,-0.78343,0.72771,-1.2222,0.19957,-0.77006,0.58453,-0.091821,0.087678,0.31854,0.70997,0.9374,-0.46157,-0.17633,-0.40542,0.67545,0.089017,-0.75488,0.24461,-0.059126,0.0026154,0.27766,1.6444,0.94396,-1.3238,0.020666,-0.52746,0.83906,-0.86562,0.067062,-0.38675,0.21263,-0.069293,0.36148,0.83636,-1.8639,-0.85996,0.55211,-0.090987,0.70084,-0.11893,-1.7953
Gambia,-0.14789,-0.26794,-0.62597,0.90228,-0.19767,-0.65211,0.083655,-0.010945,1.0126,-0.19807,0.68472,-0.16322,0.8899,-0.94909,0.015961,0.053573,-0.11698,-0.19359,-0.042552,0.64469,-0.4936,0.68491,1.4486,0.51076,-0.35863,-0.34602,0.6738,0.24509,-0.62735,0.22545,0.17404,0.84712,-1.1537,-0.046084,0.19012,0.18838,-1.2171,-0.47212,-0.38896,-0.10014,0.12327,1.2124,0.32194,-1.2941,-1.1909,0.63278,-0.3055,-0.13549,0.52827,-1.8143
Gabon,0.88878,0.027461,-0.43901,1.2225,-0.52557,-0.60856,0.42052,0.43652,0.62521,0.018729,0.81989,-0.28245,0.59364,-0.76658,0.079232,0.046228,-0.4124,-0.10879,0.040097,0.64171,-1.1965,0.19322,1.4345,0.27443,-0.28908,-0.31283,0.5152,0.20911,-0.65774,0.7979,0.84673,1.0475,-1.3522,0.76733,0.40273,0.037538,-1.0791,0.32439,0.32846,0.45515,0.063554,1.1872,0.25679,-1.2897,-0.45873,1.4574,-0.62032,0.24557,0.30958,-1.6103
Botswana,0.24616,-0.81813,-0.68943,1.1376,0.044503,-0.39755,0.28116,-0.46788,1.1392,-0.53008,0.68382,-0.39707,0.58225,-1.5637,0.38891,0.5906,0.39975,0.31669,0.54216,0.2016,-0.33455,0.40104,0.8845,0.42423,-0.072348,0.10012,1.2408,-0.41007,-1.3903,0.73745,1.1644,0.61837,-0.78591,0.49312,0.06608,-0.14672,-1.1006,0.36651,-0.4101,-0.58544,-0.36314,0.86619,-0.13876,-0.83034,-0.37347,1.086,-0.39438,-0.29527,-0.20677,-1.3861
Lesotho,0.57378,-1.1142,-0.43839,0.94165,-0.48406,-0.17416,1.1976,0.20936,0.58189,-0.8066,0.20431,-0.40402,0.80236,-1.3009,-0.0731,0.47513,0.04676,0.75918,0.53315,0.31451,-0.40471,0.55175,0.60159,0.15639,0.19623,0.043561,0.39984,-0.54924,-1.4205,1.0558,1.0932,0.66661,-1.0248,0.8819,0.15555,0.75219,-0.36077,-0.24614,-0.10094,-0.84936,-0.20026,0.77701,-0.058486,-0.93942,-0.22508,1.4752,-0.55522,-0.43407,0.23854,-1.7169
Guinea-Bissau,0.030714,-0.63776,-1.1659,1.0632,-0.10075,-0.016399,0.38367,-0.10081,0.89585,-0.15155,0.88003,-0.068761,1.7339,-1.2145,0.39447,-0.1213,-0.32805,0.63915,-0.10104,0.31438,-0.7045,0.14464,1.1605,0.68729,0.25633,0.26706,0.49588,-0.29311,-0.11797,1.2163,0.043279,-0.014598,-1.4896,-0.46158,0.52509,0.2094,-1.3236,-0.521,-0.6054,-0.35294,-0.20864,0.69931,-0.023842,-0.96553,-1.274,1.1185,0.33345,-0.48866,0.25059,-1.3295
Slovenia,-0.24289,0.15219,-0.28094,1.1139,0.16837,0.52324,0.11307,0.39872,-0.97902,-0.86062,1.0915,-1.8531,0.069393,-0.039163,0.71337,1.08,0.64799,-0.71564,0.7155,1.215,-0.82922,-1.1013,-0.12465,1.4587,0.12586,-0.24442,0.41137,0.45056,-0.88997,-0.90774,1.3642,0.60471,-0.25877,0.21346,-0.48398,-0.35062,-0.65476,0.93506,-0.30294,-0.24349,-0.33955,0.24061,0.51923,-1.7422,-1.1108,0.60518,0.4113,0.35429,0.19192,-1.2425
Equatorial Guinea,1.15335,-0.51339996,-0.18798,1.29425,-0.24556,-0.338415,0.79140997,-0.07155,0.18674,-0.244882,0.53844,0.12924,0.88485,-0.185925,-0.087735005,0.21659501,0.44238,0.30045,-0.96801,0.53723,-0.722505,0.396045,1.0670301,0.1429405,-0.06256001,-0.69379497,1.0806999,-0.129375,-0.70235,1.0241799,1.15027,-0.15783751,-1.4143,-0.18200499,0.034855,0.087465,-1.398905,-0.487585,-0.54919,-0.59091496,-0.05475001,1.29825,0.60650504,-0.67203003,-0.638875,0.50541,0.08508,-0.49732,0.173575,-1.48105
Latvia,-0.83433,0.318,-0.23272,-0.26098,-0.13771,0.66924,0.40027,0.86774,-1.3287,-0.60404,1.3258,-0.94471,0.77461,0.43601,0.58325,0.29888,0.0048906,-0.82593,0.389,1.3098,-0.33229,-1.0256,-0.53035,0.66287,-0.21742,-0.72182,0.43491,0.16214,-0.34683,-0.40236,1.1119,1.7301,0.12703,-0.065971,-1.0486,0.13526,-0.3546,-0.03176,-0.14896,-0.53271,-0.308,-0.18335,1.5031,-1.9206,-1.1462,0.70775,-0.49134,0.64721,0.036494,-1.0888
North Macedonia,0.34657502,0.18997502,0.0017729998,0.1127595,-0.233555,0.032265,-0.322755,0.63031,-0.21727501,-1.1304,0.258625,-1.059535,0.1504115,-0.853755,-0.33143502,0.5379,0.46773002,0.117735,-0.10212001,0.734235,-0.20911501,0.028869499,-0.3049965,0.53896,0.219022,-1.4056399,0.50554,0.339645,-0.0661135,-0.30888,2.5875,0.09239,-0.43859503,-0.20568,0.063435,-0.188275,-0.500655,-0.49309498,-0.780095,0.200035,-0.194765,-0.030095004,0.70926,-1.54095,-0.6237,0.67183495,-0.1425885,0.55751,-0.65572,-0.990715
Bahrain,0.065286,0.51741,-0.20534,1.4819,0.67083,-1.057,0.42418,0.80223,0.73173,0.16324,0.66643,-0.68455,-0.35283,0.17954,0.17929,0.87013,0.27536,-0.32651,-0.47227,1.0107,0.36151,-0.20535,0.77381,0.56157,-0.78579,-1.0458,0.48457,-0.29053,-0.30005,0.83599,1.0603,0.77668,-0.41785,0.80468,0.20718,-0.36321,-0.19302,0.3838,-1.1267,0.75794,0.21792,0.11878,0.19265,-0.30715,0.098405,0.63935,-1.0787,0.47449,-0.10612,-1.2639
Trinidad and Tobago,-0.122459985,0.10598234,-0.7057533,1.2277523,0.027377972,-0.040119987,-0.14670868,0.27874002,0.15140001,0.22614999,0.6877634,0.25615332,0.028223326,-0.45040333,0.16897333,-0.193235,0.023678003,-0.078651,-0.85772663,-0.24701667,-0.25656998,0.50409,0.31895334,-0.035584,-0.23210667,-0.6974223,0.68662333,-0.29324666,-0.223267,-0.135754,1.5828699,0.6723633,-0.24521668,-0.28965867,0.00079999864,-0.18330002,-0.31637332,0.27026,0.08456334,0.03167167,0.063471995,0.6004467,0.53131,-0.49411666,-0.33521667,1.1540667,-0.8140966,-0.84218335,-0.019704998,-0.5832
Timor-Leste,-1.0114,-0.1563,-0.17027,1.0373,-0.51221,-1.3616,0.56239,-0.26895,-0.11881,-0.069338,1.0296,-0.17581,0.78198,-0.66761,-0.46648,-0.36828,-0.050474,1.0116,0.043399,0.040794,-1.148,-0.11712,0.023034,0.17937,-0.11582,0.88021,0.40704,-0.1152,-0.46927,0.21804,-0.42442,0.29044,-0.82336,-1.2498,-0.39353,0.1241,-0.51673,-0.62264,-0.7811,-0.40636,0.10804,-0.54387,0.25636,-0.77503,-1.3097,0.42833,-0.0069032,0.12538,0.35392,-0.19089
Estonia,-0.42778,0.026941,-0.22199,0.092255,-0.16639,0.81466,-0.21124,0.63485,-0.92481,-1.1618,1.1975,-1.0043,0.67699,-0.051934,0.69329,0.14439,-0.010258,-0.25072,0.17728,0.92823,-0.18599,-0.92666,-0.79385,0.72403,0.49216,-0.91958,0.089754,0.19595,0.015347,-0.51734,0.94701,1.0105,-0.19363,0.10926,-0.83306,0.082646,-0.29112,-0.12192,-0.10491,0.058442,-0.23935,-0.23167,1.4009,-1.9914,-0.97253,0.81526,-0.21239,0.618,0.44338,-1.1478
Cyprus,0.72777,0.23947,-0.66363,0.61138,0.0082807,0.19379,-0.31387,0.56139,-0.75366,-1.0778,0.93748,-0.24814,0.15737,-0.15673,0.72806,0.93681,0.80451,-0.21953,0.04383,0.84399,-0.10482,0.039487,-0.86245,0.49546,0.75968,-0.87402,1.2557,0.091065,-0.40781,0.16886,1.7486,0.17777,-1.1234,0.6368,-0.068762,-0.46291,-0.065736,-0.34523,-0.95305,0.15359,-0.006031,-0.2491,0.97985,-1.0796,-0.87539,0.23959,-0.1314,1.4838,-0.080409,-1.2146
Mauritius,0.80912,-0.12628,-1.124,0.91644,-0.3278,-0.15874,-0.35297,-0.18656,0.87795,-0.62732,1.0617,0.52135,0.97266,-0.62309,-0.047887,0.27443,-0.12054,-0.1754,-0.15884,0.71637,-0.42064,0.11478,0.6475,0.22878,0.32119,0.24979,0.76096,-0.098076,-1.1472,0.35368,0.7258,1.0375,-0.51227,0.55094,-0.14129,-0.34656,-0.34755,-0.05424,-0.29081,-0.18538,-0.18898,0.23795,0.49511,-1.2553,-0.64359,1.1444,-0.72601,-0.40593,0.79449,-1.2282
Djibouti,1.5445,0.031752,-0.53662,0.71897,-0.41691,-0.89104,0.014944,0.10748,1.183,-0.6191,0.45337,-0.11606,0.12212,-0.85173,-0.6241,0.28702,-0.016292,-0.12378,0.6883,0.80582,-0.80939,0.12683,1.0691,0.554,-0.73402,-0.24937,0.71296,0.17351,-0.58441,0.6553,0.53821,0.65597,-1.6231,1.1725,1.0863,-0.29215,-0.88486,0.090596,-0.97166,1.0139,-0.10607,0.74665,0.18441,-1.0647,-0.53258,0.21903,-0.38622,0.15629,-0.18106,-1.3507
Fiji,-0.65228,-1.2096,-0.89611,1.357,-0.28152,-0.58063,0.23498,0.43229,-0.42148,-0.36837,0.6944,0.35874,0.57249,0.034021,0.2175,0.52898,0.22757,0.032584,-0.64409,0.35304,-0.42628,0.98893,0.13124,0.1528,0.61819,-0.16488,1.2126,-0.88231,-0.78316,0.80043,1.5786,0.75609,-0.58413,0.44724,0.036937,0.25582,-0.14332,-0.99968,-0.46204,-0.49667,-0.67818,0.54231,0.36607,-0.35028,-0.66437,1.2867,-0.97837,0.14116,0.80346,-0.97745
Comoros,1.1459,-0.5348,-0.17157,1.1942,-0.3713,-0.48065,0.24858,0.55057,0.32033,-0.56454,0.62638,-0.28366,0.4431,0.68325,-0.17272,-0.33271,-0.46166,-0.36351,-0.22393,0.33522,-0.91448,0.59834,0.32754,0.29091,-0.15031,-0.15972,-0.40444,-0.0056767,-0.5858,1.0337,0.036359,0.41255,-1.5518,0.72056,-0.057972,-0.36988,-1.1034,-0.94686,-0.10646,0.54555,-0.46761,1.0768,0.77693,-0.69732,-1.86,0.5177,-0.60052,-0.12842,0.46031,-1.6781
Guyana,-0.21244,-0.34525,-0.9538,1.2761,-0.28057,-0.36898,-0.34527,0.71528,0.51069,0.36674,0.66703,-0.015739,0.90312,-0.3587,0.059045,-0.25914,-0.05239,0.17528,-0.58044,0.40415,-0.33133,0.79752,0.0065256,0.032365,-0.18796,-0.54749,0.89447,-0.33089,-0.30427,0.31112,0.26669,0.18769,-0.58255,0.053681,0.28513,-0.058376,-0.70856,-0.21782,0.63897,0.093847,-0.39355,0.74593,0.8431,-0.4012,-0.79148,1.8592,-0.99172,0.10958,0.29017,-1.3792
Solomon Islands,0.834495,-0.097664,-0.690345,1.3801,0.250272,0.155175,-0.445865,0.40840352,-0.234634,-1.1693599,0.225396,0.57096004,1.320965,0.095385,0.018079996,0.394405,0.66312504,-0.749195,-0.915825,0.54078996,-0.023409002,0.243855,-0.2009335,-0.19215001,0.781175,-0.49104,0.21727,-0.61955,-0.523955,-0.333725,1.6637001,-0.46449,0.052111,-0.120472,-0.19124,-0.1491405,-0.4236515,-1.1135,-0.207655,0.35939,-0.413625,1.01154,0.8353095,-0.672395,-1.054485,0.468645,-0.376,-0.73773503,-0.421065,-0.443805
Bhutan,-0.38485,-0.56947,-0.60268,0.65164,-0.044891,-0.80221,0.36767,-0.37322,1.0673,-0.83051,0.56667,-0.51533,0.87281,-0.36917,0.31255,1.3885,0.28275,0.12089,1.0152,1.6774,-0.20893,0.05157,0.52045,0.65895,0.25517,-0.032828,0.007571,-0.54512,-0.83579,0.37356,1.2284,0.34653,-0.68379,0.99127,0.03814,0.85456,-0.27652,-0.091451,-1.17,0.32577,-0.87347,0.43452,-0.29466,-0.21117,-0.5687,0.48592,-0.079202,-0.022064,-0.4835,-1.921
Macau,0.73783,-0.11426,-0.55983,1.5674,-0.71364,-1.5902,0.15418,-0.045758,0.067909,0.10131,0.41514,0.073819,0.13026,-0.085542,0.6276,0.62521,-0.10665,0.2822,-0.13114,1.1055,0.73248,-0.47726,-0.52248,0.53031,-0.43238,-0.93146,0.35943,-0.079578,-0.5914,-0.22978,1.1802,0.32116,-0.27084,0.85887,-0.23392,-0.43463,-0.61502,-0.12322,-0.92355,-0.13923,-0.89809,0.098798,0.86713,0.26473,-0.88013,-1.2928,-0.39782,-0.63242,0.92204,-0.82422
Luxembourg,0.86459,0.45181,-1.0723,0.57919,-0.26784,0.69173,0.22261,0.50861,-0.9651,-0.90631,0.93887,-0.4235,-0.22603,-0.051868,0.68696,0.64358,0.50098,-0.932,0.047924,-0.046494,0.8905,-0.73113,-0.4784,0.9922,-0.63802,-0.36254,0.077617,0.2791,-1.3397,0.25403,1.2571,0.87092,-0.055003,0.66243,-0.53238,-0.85212,-0.081787,0.85719,0.22478,-0.38174,0.79986,0.11993,1.4999,-1.5373,-0.61594,0.30185,-0.75352,-0.26388,1.0937,-0.55674
Montenegro,-0.26302,-0.067991,0.076627,0.5752,0.12926,0.34871,0.54092,0.85761,-1.4354,-0.32532,1.4583,-1.4197,-0.30347,0.070631,0.58276,0.56419,0.2532,-0.37787,1.2666,0.16893,-0.87692,-0.23349,-0.51007,1.1127,-0.91724,-0.40843,0.51742,0.46085,0.054256,0.15277,1.4705,0.64009,-1.0511,-0.40084,-0.62607,0.0017916,-0.2501,0.036922,-0.56484,-0.27556,0.023346,0.42657,0.64023,-1.9641,-1.3572,0.67625,-0.68966,0.22397,-0.31682,-1.065
Suriname,0.28952,-0.56625,-0.76416,0.62405,-0.50999,-0.44901,0.4273,0.47705,0.13326,0.77858,1.3593,-0.26485,1.1237,-0.038778,0.36707,-0.1417,-0.013792,0.13816,-0.17625,0.35612,-0.49454,-0.01571,-0.10325,0.20511,-0.84078,-0.55317,0.16149,0.092852,-0.38214,0.28277,-0.26038,-0.050911,-0.88475,0.09361,-0.086836,-0.30406,-0.73036,0.22471,0.57822,0.061306,-0.26279,1.0116,1.5785,-0.79655,-1.0007,1.0545,-0.82279,-0.55323,0.21594,-1.7699
Western Sahara,0.095474996,0.0783865,-0.62654495,0.42923,-0.51120996,-0.3817815,-0.3815,-0.14398849,0.21195999,-0.32092,0.28696,-0.628875,0.300465,-0.15505001,-0.30223,0.58359003,0.81682503,0.008387502,-0.311984,0.76773,-0.29095,0.450379,0.1799675,0.59831,-0.14992,-1.1481,-0.2580835,0.313285,-0.1356565,0.371942,2.102365,-0.32999498,-0.437685,0.3164,-0.06584,-0.44422,-1.3499,-0.478895,-0.841805,0.20159501,-0.31010002,0.437235,0.82956505,-0.71703,-0.4485335,0.24114498,-0.161244,0.020862501,-0.44537,-1.0955
Malta,0.68743,0.23994,-0.79328,-0.17475,0.19299,0.13154,-0.18722,0.62047,-0.46882,-0.62578,1.3942,-0.012408,0.56205,0.23628,0.12094,0.26579,-0.043283,-0.61101,-0.93234,1.3058,0.18251,-0.65045,-0.26715,0.67747,-0.39508,-0.68575,0.56699,-0.11039,-0.33636,-0.11557,0.61899,1.2938,-0.40081,0.11074,-0.29035,-0.014696,0.26483,0.077566,-0.64929,0.08954,0.35614,-0.2505,1.0169,-1.3196,-0.79791,0.50297,-0.62445,0.12799,0.56059,-0.97449
Maldives,0.01147,-0.25459,-0.10754,1.5788,0.17353,-0.60845,0.54953,-0.070948,1.13,0.012584,0.54315,-0.35619,1.0453,0.94279,-0.11168,0.9541,0.20417,-0.057919,-0.1007,1.6425,-0.6708,0.71076,1.0049,0.030767,0.27028,0.020411,0.34237,-0.31361,-0.74878,0.59503,0.76439,1.0751,-0.62134,0.62083,0.33977,0.45568,-0.18041,-0.33573,-0.6424,-0.12015,-1.4451,0.48923,0.055709,-0.075038,-0.64667,0.95803,-0.76008,-0.15426,0.90331,-1.5516
Cape Verde,0.97277,0.189685,-1.0104849,0.750226,-0.84712505,-0.83046,-0.722385,0.028665006,0.109625004,-0.16946,0.21056001,-0.118369505,1.4533999,-0.81770504,-0.681665,-0.046278503,0.16413599,0.367925,-0.911985,-0.004280001,-0.60715,0.42069,0.13306499,0.25142,0.14250201,-0.20785,0.70562506,0.61245,-0.737115,0.105701506,1.50005,-0.3262665,-1.267885,0.283755,0.51136005,-0.603175,-0.541175,-0.451025,0.34743902,-0.21849,-0.014893,0.51081,0.26639,-0.96367496,-0.878315,0.69926,0.09341,-0.88088,0.503375,-0.69525003
Brunei,0.64279,0.10649,-1.3639,1.6692,0.93578,-1.0025,0.66139,-0.11214,0.47486,-0.32061,0.74939,0.32581,1.0868,0.22629,0.35303,0.91088,-0.065757,0.42275,0.14911,1.5966,0.56408,-0.19449,1.0401,0.0023401,-0.5689,-0.088761,0.74648,-0.40699,-1.2328,0.15081,1.4258,0.92191,0.024834,1.1764,0.33546,0.052457,-0.71465,-0.12036,-1.137,-0.10902,-1.1316,-0.18802,0.58294,-0.54712,-0.14945,0.67211,-0.95143,0.014254,-0.40134,-1.1268
Belize,-0.11026,0.43031,-0.68988,1.0404,-0.92909,-0.87657,-0.38592,0.66911,0.44189,0.024682,0.64662,-0.14837,1.7641,0.0049675,-0.13771,0.041285,-0.22128,-0.25851,0.047412,0.77508,-0.66001,0.24342,-0.12386,-0.057691,0.1094,-0.2107,0.60924,0.29879,-0.11225,-0.33288,0.56208,0.27982,-0.13482,-0.27339,-0.19144,0.1773,-0.3691,-0.31327,0.28224,0.24798,-0.65637,0.73551,1.1317,-0.90524,-1.1727,0.90731,-0.90547,-0.44093,0.37421,-1.0242
Bahamas,0.20566,0.42999,-0.12378,1.3764,-0.61635,-0.23585,-0.36705,1.0443,0.94758,-0.32323,0.45151,0.25314,1.0669,0.29229,0.15877,0.31325,-0.31818,-0.94716,-0.86619,0.13683,0.00038479,0.62257,-0.10788,-0.17271,0.38276,-0.76183,0.48953,-0.22708,-0.05989,-0.20682,0.23634,0.70844,0.018079,0.11242,0.038395,-0.62055,-0.2659,-0.77251,0.22112,-0.15893,-0.53323,1.1739,1.4294,-0.73113,-0.89614,0.33704,-0.51921,-1.4159,0.1876,-0.54052
Iceland,0.31709,0.28361,-0.28066,-0.11441,-0.47074,0.53275,-0.36437,0.82655,-0.068807,0.089246,1.4228,-0.080328,0.88628,0.97061,0.64336,1.0165,0.95184,-0.69911,-1.1114,1.0596,0.41369,-0.73963,-0.032603,0.62652,0.35569,-0.59281,0.60934,0.24471,-0.56846,0.2462,0.95107,0.79077,0.29736,0.023703,-1.0591,-0.41303,-0.28094,-0.47151,0.35459,-0.34586,0.078206,-0.14982,0.90154,-0.78156,-0.99089,0.98301,-0.075528,0.84948,-0.039322,-1.2295
Vanuatu,0.18327,-0.27205,-0.67347,1.3218,-0.35125,0.053704,0.18829,0.35373,-0.58918,-0.28927,1.08,0.040907,1.4246,0.58579,-0.32226,0.70969,-0.013743,-0.15944,-0.28023,1.184,-0.32169,0.3844,-0.22697,0.29614,0.73917,0.006775,0.5578,0.24136,-0.92391,-0.17664,0.38313,0.96284,0.14546,0.17622,-0.25245,-0.020177,-0.28437,-1.1517,0.036871,-0.026512,-0.66062,0.92109,0.4867,-1.2486,-1.0011,0.61122,-0.3387,0.31119,0.70783,-0.7536
New Caledonia,0.179645,0.05751002,-0.72306454,0.421402,-0.23216,0.24955851,-0.7493,-0.245725,-0.28749502,-0.36501998,0.16916,0.0111535005,0.55236995,-0.09791,-0.350254,0.221516,-0.146629,0.250854,-0.634955,-0.017334998,0.27201,0.171535,-0.54377496,0.11962,-0.171925,-0.73285997,0.22245999,0.027443498,-0.18929,-0.11284299,2.019015,0.124666005,-0.310605,-0.36501,0.29386503,-0.428595,-0.13729501,-0.6015215,-0.0870435,-0.567945,-0.311845,-0.3329525,0.50668347,-0.58599997,-0.517684,1.06435,-0.145494,-0.178541,0.077245004,-0.162845
Barbados,-0.36142,0.25893,-1.1512,0.76478,-0.61962,-0.3724,-0.45427,0.57088,0.98436,-0.066853,0.032903,0.21797,0.83851,-0.39762,0.018219,-0.17441,-0.31625,-0.52285,-0.75117,0.072726,-0.25189,0.74397,0.14542,0.094833,-0.037595,-0.22105,1.035,-0.19835,-0.45102,0.54263,0.39044,0.76309,-0.052347,0.15703,0.47682,-0.43436,0.35824,-0.025035,-0.064502,-0.31732,-0.45927,0.61067,0.84574,-0.41793,-0.80548,1.7734,-1.255,-0.82601,0.67783,-0.53071
French Polynesia,0.685405,-0.20215002,-1.3513501,-0.10936999,-0.73676,0.1340025,-0.22195,0.283185,-0.4908,-0.38703,0.850435,-0.3630605,0.324825,0.166355,0.19538501,-0.17875001,-0.0015154993,-0.073075,-1.07369,-0.496075,-0.111250006,0.71368504,-0.454045,0.358365,0.08369002,-0.9632,-0.36146998,-0.03982,-0.655375,0.958875,1.293675,-0.25006002,-0.90668,0.32979402,-0.034702,-0.68798,-0.27248,0.10913001,-0.43541998,0.06782,0.690215,0.175025,1.71885,-0.76493996,0.119514994,0.90636,-0.41555,0.24223,0.0432,-0.80377495
Sao Tome and Principe,0.9945475,-0.41530502,-0.1699875,0.98601174,-0.0812905,-1.0894926,-0.0470125,-0.14426276,-0.029377505,0.447155,-0.10459999,0.09594,-0.11331999,-0.4113782,-0.0029474795,-0.73339874,-0.39510775,0.0085935,0.36839,0.058097497,-0.23293,0.50214255,0.4013225,0.2611365,-0.1954,-0.2396775,-0.11098501,0.018877499,-0.7611053,0.21136001,1.7171401,0.1754175,-0.43822926,0.42842,-0.22448352,-0.12595,-1.0038275,-0.11005324,0.5368175,0.08338176,0.10152425,0.7954725,0.10229,-0.58257246,-0.77109003,0.67936003,-0.20959765,-0.40076476,0.5109425,-0.73727
Samoa,-0.43301,-1.024,-0.93102,0.9616,-0.15194,0.1724,-0.1601,0.8564,-0.28863,-0.71569,0.70684,-0.34279,1.0157,0.18237,-0.128,0.25402,0.5632,-0.19455,-1.561,0.43735,-0.64774,0.4717,-0.18453,0.39104,0.65373,0.085097,0.60989,-0.64659,-0.76344,-0.33831,0.66722,1.2382,0.044352,-0.08091,0.078743,0.098809,0.11556,-0.74551,0.0031787,-0.65341,-0.58804,0.19187,0.81089,-0.99407,-0.91343,1.8874,-0.46207,0.077347,0.63476,-0.43695
Curacao,0.3138,-0.21325,-0.99381,0.4145,-0.75559,-0.17822,-0.29196,1.0838,0.49807,0.73942,1.058,-0.57069,1.2975,0.53278,-0.54719,0.54758,0.12672,-1.3298,-0.72525,0.30001,-0.36745,-0.38284,-2.6829e-05,0.60617,-1.909,-0.24324,-0.52069,0.65155,0.10209,-0.59087,-0.58908,0.87417,-0.3194,0.68615,0.63975,-0.79394,-0.32074,-0.80855,1.3609,0.53498,-0.14836,1.0119,0.97473,-0.4541,-0.42121,0.4863,-0.18523,0.15231,0.28627,-0.80152
Saint Lucia,1.01963,1.55256,-1.27075,-0.43598998,-0.0001949966,-0.16619301,-0.653755,0.448705,0.065349996,0.0469815,0.567725,0.54076,0.330405,-0.687995,-0.15929344,-0.447625,-0.28854,-1.0699999,-0.36327,0.401695,-0.890885,-0.016084999,-0.678825,0.2643085,-0.33715498,-0.3662565,-0.38445,-0.041265003,-0.825735,-0.020028649,0.871965,0.771485,0.3532,-0.018405005,-0.0423325,-0.38507003,0.46060002,-0.023865,0.625365,0.53894,0.17769001,0.72922504,0.2181735,-1.060885,-0.124312,0.85989,-0.91338,-1.3673,0.64351,-0.33273152
Guam,0.49924,-0.76043,-0.59014,0.9808,-0.001992,-0.46168,-0.19855,0.93544,0.45469,-1.2054,0.48058,-0.48698,1.6337,0.37558,-0.59388,-0.2097,-0.99357,0.15915,-1.3228,0.82118,0.0044659,-0.2983,0.044241,-0.48753,0.42988,-0.84451,0.85135,-0.073639,0.37516,-0.94612,0.35935,0.78754,-0.58464,-0.29786,-0.10824,-0.61205,-0.21986,-0.1309,-0.6868,0.24034,-1.1441,-0.22665,1.0361,-0.92718,-0.87053,0.26954,-0.050138,-0.65789,-0.47562,0.38882
Kiribati,-0.35273,0.067696,-0.4369,1.1775,-0.4126,0.089474,0.15492,0.11086,0.016597,-0.1612,0.55647,0.56793,1.7475,1.3569,-0.6377,1.387,0.21999,-0.19017,-0.0089526,1.1735,0.10408,0.42701,0.26105,-0.27334,0.40655,-0.1247,0.22358,-0.25001,-0.84856,-0.25092,-0.55788,0.74522,-0.059917,0.40563,0.214,-0.59595,-0.60989,-1.0089,-0.13194,0.20418,-1.4042,1.1021,0.47055,-0.27785,-1.1873,0.81146,-0.20864,-0.13428,-0.73301,-0.49787
Seychelles,0.92031,-0.16452,-0.43863,1.269,-0.63275,-0.09435,-0.0045337,0.1761,0.87474,-0.71039,0.52347,0.38773,0.75635,-0.35948,-0.50156,-0.44033,0.068457,0.17896,-0.39873,0.15454,-0.9326,0.66277,0.65716,0.51317,0.46303,0.22884,1.0012,-0.03528,-0.86304,0.64319,0.57241,0.75323,-0.73287,0.75224,-0.18421,-0.4722,-0.65814,-1.0837,-0.42624,-0.010765,-0.11354,0.42366,0.55515,-0.65443,-1.0264,0.63483,-0.86532,-0.7115,0.90158,-1.4283
Grenada,-0.1123,0.53116,-0.80468,0.66342,-1.0353,-0.42219,-0.008184,0.648,0.37762,0.0047663,0.26644,0.33659,1.0992,-0.14136,-0.12076,0.10456,-0.07634,-0.67102,-0.46263,0.75243,-0.58091,0.24867,0.05349,-0.8041,-0.56566,-0.26267,0.39516,-0.21569,0.24517,0.60542,-0.1194,1.259,-0.4125,0.099644,-0.12184,0.27102,0.05254,-0.35701,0.037162,0.054478,-0.70316,1.1842,0.74324,-1.0741,-0.57692,1.7147,-1.5059,-0.86026,-0.15619,-0.69026
Micronesia,-0.1761,-0.93617,-1.0667,1.6373,0.45014,0.8019,0.047739,0.027451,0.29107,-0.88325,1.1809,0.26621,1.4998,0.63697,-0.28747,1.2727,-0.11357,-0.12492,-0.5852,0.4472,0.11845,0.09723,0.26793,0.04372,0.23436,0.27927,0.73238,-0.46617,-0.55178,-0.52606,-0.57342,0.55796,0.12238,-0.054942,-0.12197,-1.2776,-0.79473,-0.79257,-0.42028,0.59105,-1.0657,0.5518,0.73747,-0.51988,-1.0075,1.6996,-0.19131,0.0097493,-1.7371,0.1785
Aruba,0.48626,-0.32094,-0.99128,0.47794,-0.69428,-0.12243,-0.49575,1.1878,0.95459,0.18607,1.197,-0.27843,0.92795,0.63903,0.66996,0.67455,-0.016359,-0.85522,-0.53361,0.5576,-0.086865,0.60365,-0.014332,1.4555,-0.76695,-0.50603,-0.35044,0.41445,-0.37483,-0.15841,-0.67332,0.43701,-0.21187,-0.2005,0.6247,-0.3761,-0.1909,-0.56021,0.92829,0.047571,-0.29169,1.3033,1.3593,-0.44509,-1.1801,0.14766,-0.056504,-0.026277,0.52603,-0.55017
Tonga,-0.32811,-0.76445,-0.71158,1.2597,-0.25991,-0.17874,0.11001,0.74143,-0.30911,-0.75869,0.61165,0.39253,0.99842,-0.032596,0.039954,0.30354,-0.041559,-0.29442,-1.1797,0.79415,-0.3573,0.27152,-0.14315,0.37784,0.91319,0.034711,0.41856,-0.77247,-0.76673,-0.16966,0.63697,1.2938,0.2816,0.47101,-0.28894,0.31435,0.18152,-1.039,-0.17627,-0.12403,-0.083787,0.56232,0.34368,-0.49855,-0.81164,1.7164,-0.49198,0.052259,0.70638,-0.80975
Jersey,-0.58799,0.5237,-0.43901,0.20235,-0.24809,0.83891,-1.8201,-0.24394,-0.042007,-0.88241,-0.31837,-0.62089,-0.065572,-0.23857,-0.43266,-0.22669,-0.48063,-0.25786,-1.0126,-0.43651,-0.32772,-0.31723,-0.78414,0.2991,-1.4958,-1.8041,0.053844,0.62729,-0.044872,-1.3678,1.4082,0.52184,-0.15919,-1.0641,0.63164,-0.66726,-0.1372,0.26659,0.57591,-0.65129,-0.34107,-0.015463,0.56549,0.096276,-0.6589,0.37402,-0.22312,-0.67946,0.27789,0.51315
Saint Vincent and the Grenadines,0.479626,0.86148804,-0.742084,-0.078236565,0.34074602,0.021466607,-0.516496,-0.0531712,0.009268356,-0.1278214,0.470486,0.587468,-0.11100002,-0.23939618,-0.20819989,-0.25206342,-0.0597008,-0.69357204,-0.72143203,-0.026033998,-0.3125962,0.0532166,-0.195714,-0.15474519,-0.43801197,-0.87791795,-0.105875984,-0.102732204,-0.3824022,-0.16146186,1.80657,0.538016,0.07201201,-0.41718602,0.035035025,-0.10986702,0.255746,0.072528005,0.37302417,0.43184337,0.10403101,0.527974,0.19879341,-0.5760134,-0.014032811,0.69136,-0.830815,-0.95796204,0.336754,-0.32919997
Antigua and Barbuda,0.15972233,0.21462333,-0.86970663,0.8270857,-0.5647,0.30125335,-0.47657335,0.042976666,0.22705,-0.33559334,0.22909234,0.46516666,0.56786335,-0.33890966,-0.18072169,-0.106288336,-0.014116667,-0.30178002,-0.55959004,-0.03871767,-0.14421333,0.40123335,0.050846666,0.010449998,-0.33642665,-0.46474,0.38763666,-0.17752333,-0.3543737,0.00722,1.1243967,0.91229004,0.11252666,-0.14630868,0.0057818294,0.03606033,-0.24701667,-0.37791,0.4092667,-0.051333327,-0.24233766,0.50427336,0.62988335,-0.08862332,-0.27953336,0.88813335,-1.0126266,-0.62789005,0.5868667,-0.5348833
United States Virgin Islands,0.39480752,0.2780125,-0.41040826,0.5763175,0.248241,0.25892252,-0.769425,0.10367851,0.56980306,-0.64604276,0.4882125,0.1594435,0.619155,-0.13181874,-0.0015227422,0.12197849,0.09179999,-0.56325245,-0.6966293,0.08034626,0.0007392508,-0.09070177,0.06876575,0.09907075,-0.200045,-1.3253574,0.2680275,-0.25943747,-0.038006503,-0.046393,2.621275,0.0130600035,-0.244675,-0.252265,-0.2746,-0.724325,-0.34296548,-0.4253925,-0.77344,-0.2745975,-0.010582492,0.03058201,1.0567651,-0.68157,-0.5702795,0.8125125,-0.8445375,-0.4586025,-0.53130245,-0.3252675
Isle of Man,0.40379798,0.366613,-0.8690133,0.10784667,0.39701667,0.31972,-0.30728,0.0017833313,0.122873336,-0.34396335,-0.054009337,0.02977334,0.017123342,-0.39514002,0.043996673,-0.14497,0.16570501,0.438687,-0.9552367,0.030098667,-0.10520333,0.54499,-0.062516,0.20610666,0.058084995,-1.6823,-0.77641994,0.26633,-0.04290998,-0.07285,2.3883233,-0.28993666,-0.21768999,-0.053486664,0.36350334,-0.14395119,-0.050405663,-0.259474,0.108893335,-0.21273,-0.265028,0.23003334,0.13118432,0.07526993,-0.30844337,0.031419992,-0.39741,-0.88179,0.41562733,-0.48000666
Andorra,0.64015,0.75792,-0.97818,0.7779,-0.77795,0.45513,-0.020404,0.92056,-0.56754,-0.23807,0.59278,-0.6514,0.29791,-0.37504,0.54695,-0.13634,0.55039,-0.89421,-0.035433,1.1004,-1.2727,-1.0356,-0.071586,1.1341,-0.57986,0.3858,0.42287,0.61606,-0.33595,-0.51043,0.024696,1.2662,-0.0037827,0.53527,-0.65048,-0.031267,-0.0075356,0.49506,-0.20974,-0.54644,0.45031,-0.55886,1.0907,-0.84019,-0.98196,0.8189,-0.60384,0.30041,0.6948,-1.0013
Cayman Islands,1.06251,-0.182319,-0.879925,1.43445,-0.708968,-0.041135006,-0.218035,0.729865,0.113021,-1.131565,0.202384,0.33985,1.498875,0.2241025,-0.28556,0.23992649,0.341345,-0.54045,-1.206215,0.079137,0.0031484999,0.12067,-0.1844185,-0.0026849955,0.04923001,-0.27007,0.0733695,0.051079996,-0.335495,-0.22082,1.3654051,0.00045999885,0.38534,0.20189,-0.207095,-0.36859,-0.534855,-1.16355,-0.27644,-0.28574002,-0.545665,0.699225,1.5773001,-0.36813748,-1.43495,0.284625,-0.66744,-0.86254,0.193295,-0.6384
Dominica,-0.63452,0.68692,-1.0915,0.58479,-1.247,-0.012273,-0.06334,0.52413,0.30778,0.15048,0.4622,0.44068,1.7855,-0.13289,-0.82841,0.073385,-0.15349,-0.92794,0.15235,0.65445,-0.55859,0.15954,-0.081103,-0.065772,-0.076343,-0.15508,0.32244,-0.056785,-0.11776,0.22917,-0.086818,1.2862,-0.18514,0.64362,-0.19615,-0.34603,-0.11686,-0.35499,0.24022,0.39086,-0.31323,1.1553,0.69467,-0.62249,-0.97278,1.1754,-1.5431,-0.66157,0.54209,-0.72151
Bermuda,0.030184,-0.61845,-0.75571,0.64421,-1.3687,-0.46976,-0.25644,0.50615,0.57965,-1.0192,-0.14705,0.086546,0.55265,-0.34835,-0.76055,-0.085605,-0.14818,0.12964,-1.1148,-0.2348,-0.15863,0.21612,0.23449,0.041536,-0.33754,-0.40544,0.33068,0.27877,0.036735,0.17856,0.92076,0.40209,0.14873,0.61338,0.15072,-0.58054,-0.49185,-0.22565,-0.15045,-0.73698,-0.33645,0.15594,1.1873,-0.17305,-0.94591,0.69334,-0.40639,-1.0182,0.31407,-0.03102
Guernsey,0.18744,-0.010719,-1.0977,0.60566,-0.12542,0.87984,-0.88029,-0.046521,0.17192,-1.2271,0.2731,0.48842,1.4458,-0.37953,-0.066146,-0.085965,-0.18589,-0.32289,-1.1572,0.56948,0.38718,-0.79302,0.49008,0.93125,-1.2199,-0.058599,0.31865,0.39489,-0.258,-0.60437,-0.59669,0.42022,0.24358,-0.25375,-0.19496,-0.018133,-0.27211,-0.43501,-0.26937,-0.95931,0.79963,-0.037569,0.20517,0.14051,-0.95852,-0.083182,-0.41454,-0.57043,0.73327,0.055475
Greenland,0.14986,0.14508,-0.67383,-0.099316,-0.39911,0.33497,-0.89022,0.69091,0.58505,-1.1003,1.0059,-0.11628,1.7521,0.86665,-0.59956,1.2401,1.2174,-0.37953,-1.422,1.0414,0.60981,-0.61272,0.48706,0.42425,0.33436,-0.66106,-0.6034,0.58349,0.11159,-0.035326,0.59272,0.13825,-0.037249,0.74863,-0.43546,-0.38028,-0.80515,0.147,0.27942,0.68713,0.14627,0.49747,0.81878,-0.18929,-1.4457,0.35193,0.080731,0.99043,-0.51386,-1.0417
Faroe Islands,0.61769503,-0.084564,-1.10015,1.308545,-0.315658,0.56495,-0.4627,0.747915,-0.215204,-1.31025,0.79659,0.062915005,1.6585,0.394805,-0.1275135,0.67154,0.70205,-0.934035,-1.6743,0.703175,-0.1509865,-0.106910005,0.2578915,0.629695,0.391765,-0.005789995,0.22069001,-0.070659496,-0.32952,-0.16688001,1.239424,0.44531503,0.102074504,0.121869996,-0.29389,-0.246025,-0.419963,-0.882695,-0.72029,-0.24323002,-0.173485,0.44925952,1.219765,-0.52317,-1.52805,0.79169,-0.3502115,-0.23973998,0.1116,-1.163525
Saint Kitts and Nevis,0.492763,1.24624,-0.87858504,-0.15080574,-0.161485,0.4646875,-0.45847252,0.2152275,-0.035328,-0.050061252,0.32481,0.44799498,0.2650475,-0.4802525,-0.30647248,0.17807375,0.20513976,-0.94821,-0.626325,0.109685004,-0.3152425,0.043829046,-0.345715,0.0946535,-0.481015,-0.47319102,-0.141985,-0.241485,-0.61671275,-0.051290073,1.01002,0.83778,0.19233175,-0.051400013,0.23861626,-0.42781752,0.28403503,-0.3033725,0.618115,0.58328,-0.02165325,0.6567925,0.30232927,-0.42838752,0.004462771,1.05165,-0.83643997,-0.8542,0.31319252,-0.6080125
American Samoa,-0.76590496,-0.26928002,-0.71571004,0.55535,0.12924,0.249225,-0.80965,0.168075,-0.188342,-0.477045,0.57158,-0.24614,0.570305,0.44949,-0.045408502,-0.17645,0.298749,-0.088558994,-1.21896,0.112560004,-0.27081,0.541135,-0.31663,0.175715,0.20953499,-1.0051515,-0.12496501,-0.812655,-0.34744552,-0.037405,1.8494599,0.42640495,-0.065044,-0.27822,-0.0024964996,-0.2788255,-0.32622,-0.52774,-0.21862066,-0.49976,-0.3707,0.100476205,1.020745,-0.673275,-0.018204987,1.09956,-0.50441,-0.0131565,-0.11760998,-0.005099997
Turks and Caicos Islands,0.56379247,-0.3391645,-0.2709695,0.51674175,-0.16526149,0.33309,-0.185985,0.49285,-0.416557,-0.642185,0.23798251,0.028587505,0.80743253,-0.061574996,-0.3415725,0.26737624,0.5162997,-0.61619747,-0.9331075,0.38985,0.17079426,0.21417604,0.35340074,0.2387335,0.27701527,-0.883955,-0.35573253,-0.423365,-0.05267775,-0.328204,1.6820775,0.47193748,0.16111499,0.16848749,-0.058164995,-0.0913395,-0.5373325,-0.82655,-0.3085325,0.4545825,-0.20629425,0.8018075,0.9132675,-0.4260825,-0.4577375,0.3421925,-0.65032,-0.4977175,-0.11773498,-0.9970525
Northern Mariana Islands,0.7479966,-0.26600933,-0.9893933,1.2549133,-0.24845533,0.23124133,-0.37281132,0.6825466,-0.03873733,-1.3359,0.39088666,-0.29873332,1.2026234,-0.11656334,-0.32875666,0.19201332,0.3886,-0.42070666,-0.9626934,0.50780666,-0.50812435,-0.10543,0.0053213337,0.31843665,0.25324667,-0.7709734,0.208582,0.09471234,-0.16240333,-0.29854998,1.8801666,-0.39873996,-0.11143333,0.12048667,0.0075366595,-0.23449135,-0.7901533,-0.616316,-0.29193667,0.37305668,-0.54586,0.8599667,1.0768167,-0.9919967,-0.89483666,0.30710468,-0.29791,-0.83783334,-0.17182666,-0.63955265
Sint Maarten,0.04843001,-0.24894199,-0.249855,-0.08751501,-0.64533,-0.64477503,-0.42054,0.63132,0.55589,-0.456745,1.086895,0.13106,0.90148,0.47531003,-0.40350002,0.545235,0.62228,-1.6896999,-0.286315,0.84465504,-0.95425,-1.009845,0.23504499,1.071525,-0.54974,-0.102297,-0.83693504,0.041525498,-0.74242,-0.39628,-1.08455,0.63047004,0.014109999,0.36927003,-0.24838,-0.36459,0.7813,-0.075348996,0.80697,1.0241151,0.527145,0.985415,0.61052,-0.19282001,-0.86661005,0.49735498,-0.70627,-0.48368,0.67629004,-0.47897
Liechtenstein,0.97961,0.11676,-0.63755,0.93456,0.054491,0.91126,0.071353,0.50904,-0.61451,-0.93355,0.39138,0.08389,-0.038941,-0.15699,1.0334,0.24276,0.7394,-0.96407,-0.3175,1.2557,0.06645,-1.5794,-0.10431,0.97495,-0.79555,-0.4453,0.13094,0.11758,-0.75216,-0.4871,-0.14503,1.3302,0.26589,0.28296,-1.1056,0.38849,-0.58134,0.79876,0.46397,-0.66874,0.66346,-0.30741,1.2263,-0.45726,-0.59644,0.3013,-0.65194,0.16104,1.4169,-1.1684
British Virgin Islands,0.7155134,0.32263234,-0.73624665,0.44556668,0.25549933,0.32030666,-1.0118366,0.15945335,0.37327397,-0.8802037,0.54029,0.42322335,0.8627434,0.196315,-0.057675738,0.13901334,0.047513325,-0.40872264,-1.2618433,-0.06835667,0.27756566,0.33813432,-0.24183565,0.21800001,-0.12305667,-0.90567666,-0.35639334,-0.24271667,-0.15123335,0.45729002,2.1850667,-0.22125332,-0.04798667,0.22491999,-0.1467,-0.46099004,-0.33479834,-0.93632,-0.7207033,-0.41146,0.37529334,0.19285333,0.9866767,-0.60372996,-0.4960867,0.50082,-0.88202,-0.69275635,-0.21680333,-0.58869
Gibraltar,0.91451,-0.096953,-0.86942,-0.0053229,-0.1457,-0.42707,-0.50284,0.80716,-0.076635,-1.0371,0.62252,0.3617,0.53251,-0.33742,-0.62064,0.22288,0.126,-0.47387,-1.011,0.79469,0.33135,-0.081428,-0.29445,0.1676,0.073766,-0.59789,0.47752,0.15522,0.30089,0.36648,0.8137,-0.0030959,-0.8647,0.30491,-0.18138,-0.31141,-0.15592,-0.52004,-0.93754,0.0039518,0.68325,-0.50262,0.72431,-0.54524,-1.2159,-0.36868,-0.33367,-0.23377,0.42831,-1.0712
Monaco,0.72574,1.0363,-0.80982,0.35192,-0.43583,-0.27851,-0.12439,0.83521,-0.71317,0.078352,0.68533,-0.12431,-1.1684,-0.45173,0.62551,-0.019894,-0.047439,-1.1886,-0.66662,-0.027969,-0.83492,-0.21131,-0.76732,0.87111,-0.76863,-0.31067,0.44293,0.12401,-0.43353,0.19836,0.79719,1.3375,-0.36366,0.59958,0.45931,-0.1831,0.19327,1.2748,0.25216,-0.56258,0.95565,0.22597,0.70027,-0.5376,-0.63094,0.20144,-0.091566,-0.7681,1.3201,-0.61045
Marshall Islands,0.27844,0.06508599,-0.5184115,1.02738,0.289142,0.29938,-0.688655,0.39113653,-0.0116055,-0.97017,0.1942425,0.62380004,0.91836,0.095800005,-0.21592,0.460515,0.69521,-0.634425,-1.26062,0.250595,0.20923351,0.42259002,-0.0288085,-0.24381001,0.54048,-0.71668005,0.321825,-0.45681,-0.202905,-0.39952,1.73537,-0.39554,0.11297549,-0.45546502,0.142975,-0.3576,-0.448205,-0.68240005,-0.17722501,0.18891001,-0.41574,0.846555,0.7731385,-0.586995,-1.19424,0.496475,-0.2968545,-0.787285,-0.55103004,-0.12250501
San Marino,0.22153999,0.24709,-0.19406,1.2391,-0.42616498,-0.64342,-1.47955,0.08444,-0.47288,0.10672,-0.1244555,-0.097265996,-0.2792905,-0.285885,0.84419,-0.9213,-0.15100501,-0.285475,-0.69384503,0.333735,-1.18674,-0.461635,-0.70184,0.429725,-0.049964994,-0.789575,0.75269,-0.12443,-0.1165887,-0.90039504,1.4618449,-0.17671001,-0.38086,-0.45276767,-0.122650504,-0.20706499,-0.015589997,0.51051503,0.84783494,0.194946,-0.31528,0.374315,0.21351,0.1149185,-0.64709,0.474585,-0.23507449,-0.77681,0.54583,0.32110402
Saint Martin,0.65473497,1.335595,-0.50397855,-0.75175697,0.31239,0.354845,-1.06316,0.01884,-0.40559,-0.19134851,0.2557161,0.51412,-0.82538,-0.600775,0.003920004,-0.62613,0.0778,-0.92042506,-0.767445,-0.06264499,-0.81140006,0.20330499,-1.0998399,0.21133,-0.029979989,-0.942705,-0.254975,-0.424575,-0.772235,-0.29819465,1.48585,0.17172,0.26959,-0.31637,-0.0453225,-0.39844,0.64269,0.1871,0.66715,0.35073,0.90085,0.65961003,0.0899985,-1.056635,0.0035875002,1.071555,-0.633905,-0.94323003,0.104059994,0.170515
Palau,1.0477,-0.22774,-1.1052,1.2985,-0.2941,-0.84976,-0.22576,0.97281,-0.28428,0.25515,0.94549,0.19336,1.6814,0.33429,-0.098985,0.059516,0.12136,-0.20347,-0.40736,0.70143,-0.8993,0.19968,-0.020397,-0.39536,-0.047931,0.42528,0.88727,-0.29005,-1.0276,-0.66702,0.015181,0.50893,-0.75808,-0.031765,-0.47156,-0.79669,0.017667,-0.64119,-0.28297,-0.098139,-0.47452,0.20661,0.60491,-0.81707,-0.91433,0.56424,-0.75785,-0.28801,-0.87659,0.051789
Anguilla,0.38963,0.34939,-0.39718,0.49774,-1.1333,-0.28507,0.071042,0.15767,0.32376,-0.13318,0.30166,0.33869,1.1958,0.22745,-1.1497,0.483,0.52788,-0.6046,-0.74183,1.2039,-1.1785,-0.40515,0.19425,0.25258,-0.82685,-0.38371,-0.77794,0.05578,-0.80387,0.062465,-1.1257,1.3196,-0.12164,0.77218,-0.18586,-0.64425,-0.07666,-0.95637,-0.12086,-0.044443,-0.11423,1.0745,0.63373,-0.37318,-0.67037,0.62781,-1.2026,-0.38653,0.62441,-0.19454
Cook Islands,0.619285,-0.0047735004,-1.01316,0.70727503,0.28115702,0.24996,-0.66927004,0.702355,-0.056816503,-1.17137,-0.026669994,0.55437005,1.370775,0.34373498,-0.014520004,0.37673497,0.75004,-0.4962915,-1.1331401,-0.146195,0.4225235,0.385605,0.7532415,0.34349,0.47427002,-0.553385,0.469945,-0.025914997,0.09915501,-0.046742,2.27675,-0.29729497,-0.10721,0.122384995,0.060755,-0.08535,-0.56322503,-0.19718003,0.16553003,-0.13032001,0.064294994,0.827165,0.84300697,-0.47119498,-0.66911995,0.78274,-0.34710652,-0.69554,-0.0913085,0.058524996
Nauru,0.10221,-0.15845,-0.2074,1.0877,-0.38079,-0.25612,-0.089528,0.36813,0.60013,0.18015,1.1796,0.49044,1.5209,1.0853,-0.025246,1.5897,0.63442,-0.68436,0.31314,1.3302,0.063779,0.48604,0.11617,0.092351,-0.27246,-0.037773,0.81587,-0.2319,-0.79724,-0.097862,-0.49322,0.25805,-0.28822,0.34067,0.22061,-0.2591,-0.20006,-0.4113,0.11248,-0.21563,-0.79792,1.1139,0.84751,-0.32798,-1.1056,0.59898,-0.29216,-0.25899,-0.85659,-0.76711
Wallis and Futuna,0.19381864,-0.098123334,-0.7892633,0.78400564,-0.28823,0.879,-0.34126016,0.10670668,-0.22147499,-0.73115,0.35596332,0.3895577,0.33057332,-0.50722665,-0.2292,0.67363834,0.07645767,-0.25081667,-0.39174667,-0.273778,0.06689,0.6731666,0.22474468,0.26910558,0.060544025,-0.19762002,-0.15168001,-0.18682666,-0.012905333,-0.084263325,0.5911666,-0.271,0.110654,-0.22027,0.02021333,-0.7003433,-0.16911633,-0.34704003,-0.34121335,0.19122201,0.520589,0.33193,0.31088534,0.027425332,-0.55297667,0.33264998,-0.57581,-0.9910334,-0.6473734,0.42436662
Saint Barthelemy,0.821585,1.72275,-0.46710503,-0.7426445,0.0015250146,-0.218765,-0.433339,0.6192,0.022309996,0.068206504,0.3090755,0.319275,0.17517,-0.568605,-0.63948,-0.34935,-0.1968,-1.1243,-0.476585,0.558585,-0.86792004,-0.22411,-0.79329,0.021200001,-0.06661999,-0.32666,-0.479114,-0.22324,-0.61298,-0.069009654,-0.00999999,0.78483,0.587955,-0.1382205,-0.2079875,-0.21175,0.396955,0.31673,0.37789,0.96719,0.761035,0.69026,0.0548385,-0.73126,0.031591,0.902875,-1.04984,-1.14026,0.37722498,-0.49496502
Tuvalu,-0.56662,0.16839,-0.68474,1.3814,0.27085,0.32628,0.06556,0.3004,-0.2075,-0.56318,1.1156,0.50569,2.0643,1.1175,-0.052895,1.1385,0.55306,0.336,-0.41956,1.056,0.14634,0.20296,0.082531,-0.002735,0.6856,0.29033,0.47576,-0.061741,-0.86322,-0.0054037,-0.18632,1.1245,0.28244,-0.34753,-0.59557,0.29491,-0.090087,-1.1635,-0.17097,-0.21481,-0.9076,0.60099,0.065816,-0.52074,-1.3896,1.018,-0.74333,0.33528,0.011342,-0.65897
Saint Pierre and Miquelon,0.6855825,0.870885,-0.88488,-0.6021707,0.2082375,0.035644256,-0.82901,0.0428065,-0.108725,0.049560003,0.548765,0.31896502,-0.34611502,-0.19813251,-0.3231225,-0.39772624,0.30676472,-1.05506,-0.33375373,-0.32796252,-0.45884,0.480825,-0.1767325,0.1983915,-0.60575,-0.108269244,-0.5127775,-0.029005006,-0.14944424,0.34260017,1.2652174,0.305515,-0.40486747,-0.08881151,0.19272424,-0.1881125,0.09466476,0.34172025,0.6715225,1.17302,0.6431217,0.77215004,0.31311172,-0.7620425,-0.24983099,0.65583503,-0.8586325,-0.74854505,0.43064,-0.30887252
